0.46500204476977075,0.13258350002972144,-0.10391119897802152,0.3485924599775894,0.1367544358163049,-0.44301338410138746,-0.22798128564857048,-0.30549630111256254,0.06262696466714908,-0.20286574159190376,0.37068725846693457,0.23481917685656462,0.4690689825575501,0.12837350441300543,0.1815565755025096,0.011392922226049979,-0.33337399606687945,-0.04873645183201496,-0.17543080973112068,-0.059689396830828745,0.287112033109649,0.44436746357448764,0.06239706819441089,-0.104898278432771,-0.1822651384837123,0.4662843789559372,-0.10878402893355284,0.17516172980352956,0.36891144861763037,-0.3713511251371851,0.23666246468845825,-0.44514731002705327,-0.36552598213807336,-0.4885600907302259,0.4640581697702664,0.24723650247550127,0.2520940654071123,0.10185017618698407,0.17687859005400877,-0.05312389982276686,0.3995053951440431,-0.1766725534601493,-0.33614863349858537,-0.2076507932652908,0.3218823939359814,0.06907513738898813,-0.41798203384833765,0.28536666348705936,0.12317651122212993,-0.20570374016096576,-0.14539128022610118,-0.3870899904267532,-0.4441602006926741,0.24113470410577437,-0.44743532590693874,-0.004271337113280543,0.20165107809863209,-0.17196885139352036,0.49502971662455836,0.38036920873315166,0.13674071302689575,0.37277830864676526,0.13956571969760315,-0.26014063123829856,-0.14127400589159772,-0.2675759872796926,-0.27691530267356657,0.2695605896569824,-0.0668097627525177,-0.256643367465225,0.2933647337824183,-0.12272027575943946,-0.03084724458256775,-0.3896720486067578,0.4126828366832207,0.3042742045559719,-0.4218729654541313,-0.18758982793357687,0.3630663753871255,-0.093192579923795,-0.21674951256658762,-0.4912615243501091,0.09413841849171457,0.3383369687522199,0.32761749316709526,0.37040617634707895,0.016159262166129822,0.4665567051638056,0.40077834874778,-0.22942559932046877,0.2202285227327008,-0.0749012804376674,0.3640896727299309,-0.023593069518098562,0.4141629971848976,0.28775272875062335,0.2969583920713787,-0.12417249779729236,-0.321977294946684,0.3436148836434249,0.40983774421278685,-0.26033452964135556,-0.28946456572873647,0.01516414802998606,0.1339757336959708,-0.4943599891177588,-0.36466193499821686,-0.21190591284776097,-0.16372923556879238,0.4962659800736064,0.09562934269578795,0.30681406039104525,0.32179728809134245,0.11614012515298905,-0.13793942714989854,-0.40824864608243927,0.3717551304087186,-0.11931396381750835,0.2612435198094808,-0.49537542272368057,0.04281944949293448,-0.17682998301292727,-0.4487413894640422,-0.11110442034702692,0.07159549387843112,-0.0953101428379245,0.3688884710321788,0.49551508814546447,-0.23289624673566417,0.22838566763254706,0.18577307400507714,0.2869565883367047,-0.38377229124622386,-0.008860416094898068,-0.21485167435516347,-0.43069224364130854,-0.14579253661951963,-0.3648204058081952,-0.025218299130876243,0.38879917053437235,-0.307735311771934,0.05304025812536353,-0.49347603947287394,0.06731947403343991,0.3066239423521061,0.18932842238565215,0.04408201760451905,-0.09580332555576372,0.2391122635675432,-0.06254178914874983,-0.2441761633094789,-0.2169316970407375,-0.3801168362735749,-0.43049334345050266,0.21762447822857067,0.026239689946365868,0.027623457687270044,0.3715140233331404,-0.43326895004120985,0.18661480027950633,0.42061282153124707,0.3901695967144781,0.3139630638785798,-0.21872310580104173,-0.29090891621935266,-0.4159139010547029,-0.17095878327242178,-0.4510945891450619,0.3377823127808579,-0.20701255129257887,-0.1398575742116704,-0.2938205767613797,0.47407738251287046,-0.14088029769532087,-0.03826182014361101,-0.3825430090984711,0.24601996643026713,-0.38860469315194585,0.23123536416020624,0.16067439567117536,0.25989641034044014,0.36422590606920063,0.2176995217270639,0.34990949141808775,0.22915563591705365,-0.011112209789144187,0.31017345763595877,0.3825507347858213,0.05384992934446582,0.14753550151225214,-0.4895977709215482,0.12317354223831607,0.35915667249496075,0.44989084456481754,-0.3617470874174926,0.3612965371933355,-0.16917195782136524,0.2802702138600344,-0.1531072223408631,0.2847291386766327,0.2235685069502465,-0.06731899986942541,0.47441809954441383,0.22579752169413306,0.0627085472228151,-0.01646302604490084,-0.118011137593962,-0.1790228388725232,0.12737424455385776,-0.07561967954209703,-0.29457007643615385,-0.4381205653844241,0.3507747996501185,-0.1698790030722638,0.2305995095960695,-0.13088059187248027,-0.12850425196576531,-0.37749324309870963,-0.4845850103082214,-0.08356880572286833,0.16851037635397795,-0.01985378555845876,-0.38178831279681485,0.060136415660362916,-0.16809447201023747,0.01660070761280557,-0.09233611389342442,0.31231263769537754,-0.4530724011971801,0.42576416978353415,-0.29927244038698614,0.49749578758051083,-0.2670512825648355,0.2632348850956553,-0.1959662161555899,0.045027057273675036,0.049726510766024606,0.3018497138389244,-0.019101866230535492,-0.46609636478328886,0.4742822181128283,-0.4862085330298579,-0.48391025336411364,0.40027107777003906,0.09994851878055946,0.05482212376147235,0.14926913986468238,0.25711101739789793,-0.18599596478891847,0.4467065346820492,-0.3623377868103301,-0.35742718800954265,-0.0443777700369309,0.22990973693111166,0.04017511200462105,-0.17063224747107805,-0.24353244509503763,-0.430957536140167,-0.07814276601569886,-0.17447158464734885,0.2666229626100872,-0.38236487751166,-0.060861559973557446,0.19530411036954848,-0.4934128537612049,-0.3530604309605307,-0.4636423067083106,-0.4399085512686069,-0.08836557059912144,-0.40311889261985073,-0.10016997242808874,-0.03405559491887868,0.43490972186515037,0.4450091687473044,0.3256113060261846,-0.0183290351265008,0.03992744599857832,0.2354968508196273,0.06446585616710633,0.4784673432781232,0.36326643417410753,0.37526641461956456,0.04233055326354777,0.4440923313923611,-0.3933543546485116,0.07789746648703365,0.05426630615921827,-0.15959687177412277,-0.4722644095448088,0.3659538811454499,0.03685412464527296,-0.437992903131826,-0.4578749439044166,-0.12074252998045437,-0.4326170758057029,-0.487638447649484,-0.28083533593586135,0.2814388361829536,0.01248218547117657,0.26449986648586354,0.01569800656929902,-0.004891579731049013,-0.28467336789481223,0.18775061185061334,0.09017518144224931,0.444196055496662,0.3787314722362207,0.4511737009002457,-0.04252146426018799,-0.48077141890065295,0.27285998215119206,0.17940584176022745,0.36912967502483895,0.4501888580112932,-0.08198839623721967,0.3947304908771177,-0.04987604754382128,-0.13925203967523603,0.22660188820522884,0.1500192113394065,0.3600074467348454,0.28829151627820293,0.07342610202876682,0.028142016082616263,0.13025868523912348,-0.10043747340355297,0.1115120039752279,-0.2677370166135592,-0.1932263529098389,0.10736626766030308,0.4730752675175873,-0.28082910771548386,0.3158860891534095,-0.3782064536234775,-0.25239277999698534,-0.22289186774260603,-0.06933973772755704,0.13787142988640932,-0.4489336306418794,-0.4529715860308667,-0.11887973957678485,0.36611297492468564,0.32757159991192114,-0.0723295915589499,0.4654193733161906,-0.18573831585661577,0.39482331788974195,-0.13578325055589932,-0.18244295400546806,-0.26468806135856526,0.42310044870681274,0.3652380213588749,0.1278962272455397,0.12617946877643116,-0.43536114430650813,0.2640092437176022,-0.3063980190387443,-0.3469544125675809,-0.12363016314871007,-0.05211221402424465,-0.2678882093339561,0.4300195199636805,0.42931113472060495,-0.4053893361760854,0.2620695574418497,-0.4665359067553936,0.24921024701798603,0.3896761635048281,-0.07029158437286726,0.378740006873392,0.4267471964229099,0.32498099910061956,-0.1826920721135261,0.44971258657889496,-0.4255600689820118,0.2538848397326302,-0.3865876189671001,0.39954645752149065,0.18717595474403068,-0.31254024332979213,0.28124780541215666,-0.5214166438871637,-0.38775258577803073,-0.17031934038914762,-0.41653800340016645,-0.03233311826679261,0.16926194756131072,0.3621640187258711,-0.10565124215505349,0.17928914012894828,0.405524338418049,0.10899715218026418,0.28116855547408587,0.27542071818373437,0.02858741206866432,0.43713641190536123,0.08351114857206075,-0.47009113666090435,0.31027495109030995,-0.43388474289005485,0.019528996864747183,0.3348501179803427,-0.08086194300318256,-0.5340217390761878,0.09889866490338409,0.36072480750422686,-0.05311794683051289,-0.10096455486878247,-0.4165138178845231,-0.41736439993301927,-0.4230594240164944,-0.3567870118376285,0.017631466860240412,-0.007919850195917285,-0.3061796340427604,-0.397123812227277,-0.3439052253271645,-0.38389864577606786,-0.014672201225944523,0.023888391294065628,0.4080410178483263,-0.3700199959405819,-0.1531752995587726,0.2673434715870293,-0.4195047322460054,0.13163964410052623,0.2443809447683597,0.13961887147276034,0.05007461763662959,0.1665219172128535,-0.4187638395148614,-0.31137383060669543,0.13445243666213788,-0.48039497725813335,-0.13138246347769134,0.5495414178704983,-0.16396817249216972,0.2743216267828885,0.26821005520583746,-0.04924646728541113,0.3616213374951336,0.24007975985162694,0.1947390444115985,0.12720685024423967,0.04135017348433321,-0.2578761476653037,0.05504795096823806,-0.4663107188344988,-0.3537821663561143,0.08799383969350578,-0.2369937520938188,0.1980366190718761,0.4156960565168035,-0.12837896736298615,0.25312448232008095,-0.4205145050272993,0.3379268880398594,-0.41490383668219877,0.017612384894450123,0.028105107934659812,-0.09659333347929797,0.4322310982364788,-0.2655497958163382,-0.3546088361760877,-0.27322938295330995,0.1903158932150298,0.4433526839018656,0.08181188734890886,-0.07763665246127802,0.008142408425689486,-0.19530432058709393,-0.10910842954163621,-0.28208865844668135,0.31077195737840246,0.054583461890378174,0.06900172932114683,0.2779566888812648,-0.4043368502881764,-0.23526109543724488,0.3289441081042456,0.012372680035423194,-0.19485978939460288,-0.09663940362190303,-0.35021672394670944,0.35630190319468574,0.48439722379568445,-0.005769467058984008,-0.09337013296787859,0.1720928594352068,-0.17125544577262036,-0.3894288372990113,-0.5035792616624936,0.48008344241362916,-0.2363901990598388,0.24529279418924826,0.05919491569540883,-0.3516340995880504,-0.14023757428637942,-0.22011374813048343,0.07363967900501735,-0.06307800734218387,0.15236274097974373,0.2187374566050234,0.2110432663901485,-0.08198737485432767,0.26273333691109974,0.3449610175319856,-0.05742970451340048,0.2027411247089662,0.06292462181603303,-0.11054213345909301,0.3752405298560716,-0.23537932937545808,0.0389551913048578,0.06644764756838155,0.15165700459068923,-0.46361641602011044,-0.26404035156481864,-0.43764884807788745,-0.3870730577021253,-0.04621988116266306,-0.35963252095081916,-0.08645850721469803,-0.23829939004449652,-0.176685664711662,-0.1546508642431203,-0.3181295752418426,-0.025047862198456426,0.3910107010611373,-0.5928957093364643,0.09465697168368623,0.30664932284247637,0.29361744265710615,0.21809962233660646,0.22157345180399077,-0.07033831924093017,-0.3863558977921398,-0.31137255648077855,-0.09306360344731844,0.0004673860818968935,-0.055443273413594174,-0.19299443285819315,-0.048385116989207874,0.09866503212066204,0.1284024278313131,0.24701384796353318,0.003350125325097782,0.25319651800538484,0.20912765561396873,0.45377808340061104,0.3415420705219617,-0.0426737783327909,-0.25787344480432894,-0.43055865955232203,-0.5192018773040852,-0.09962753599585217,-0.46877261793124175,-0.020371110909852247,0.3390583923221178,-0.0722400197411439,0.11341985520995596,0.2985411326300226,-0.2390117005039239,-0.401545648897801,0.2756141450205474,-0.20079690328079117,-0.4082581729372517,-0.14188250182719836,-0.25133689419245864,0.44428058664274994,-0.5150698164252351,-0.37553204303135074,-0.1440748840290797,-0.26727340220687223,0.18262474900929293,-0.133579944521447,0.15539180141665238,-0.12511283027352088,-0.2715349972456296,0.15955698405726354,-0.024167087328786325,0.17545076339547164,0.3316262754387793,-0.21687254068427173,0.13380388816614797,-0.1313344957922749,0.09351189693749319,0.046507373836323335,0.07697942951579724,-0.14374636691316053,-0.35780977775856054,-0.43498063225208955,0.23583569484938086,-0.32940752139214735,0.4412884957786522,-0.3116909898273362,0.14037193495893674,-0.12102800111323424,0.14861577419906072,-0.30591125400332186,0.023311157328980026,0.18992854517107843,-0.2597018239226481,0.24260070017217236,0.4724358248974988,-0.12954003603801967,-0.17459938906600414,-0.46328601037345724,0.23588812303160767,0.13561279239905305,0.0915152806050409,0.46259927832178993,-0.4267587263632865,0.09271438866653663,-0.11508746248928195,-0.40914800545685687,-0.3266253930838071,-0.2308813034211444,-0.5842026093584989,0.09578222164809985,0.6572753985432122,0.061984629738377435,-0.06313697695376642,-0.3703510489471302,0.03543672889701168,0.3364623596534355,0.30442019627688977,-0.32954429626334203,-0.2586475107076027,0.17365746464034454,-0.3440981618876541,-0.3580718293134887,0.24259340476511088,-0.19604515490234237,-0.05415309960268385,0.1329691168019984,-0.38491657766573145,-0.5603590572551239,0.3748389207684618,0.1235372680661547,-0.5492191743064541,0.7848946042443993,0.5984304578160177,-0.6271573143057817,-0.40709676386819654,-0.10104544441452018,0.36379909805640165,-0.30559039505286545,-0.6578711556824581,-0.023957954847394262,0.23122963252248202,0.4518535031190088,0.10199713267906978,0.33572061389939595,0.12491918137870776,-0.08636602421987315,-0.1270953865182244,-0.09112122302748397,-0.13292130151430712,-0.19827977545487788,0.1308150190422974,-0.011549791796007623,0.04207043971422729,-0.21127009267488864,-0.09035743276553396,0.3802016760274827,-0.34753801869462186,0.5111338814649213,0.30479574493899747,0.3313558752894556,0.05802511000800405,-0.3119824771352171,-0.48409516666316643,-0.13717841394116248,-0.3745352187104961,-0.3498692043652629,0.1222700591886831,-0.277563544370989,-0.37183089073811826,-0.6125345752761304,0.05278872227846958,0.2650424677382306,-0.18069462074793802,-0.48305942127324514,-0.32529640265446774,-0.46491115453608123,-0.052038351829496676,-0.1459901607063269,0.36419456622825414,-0.2967834034077556,0.26736365184890576,-0.276654479778538,0.08535650663724191,-0.032525063276991575,-0.022119254094395052,-0.3250071458243908,-0.5718359354812987,-0.30766952428226657,-0.13553223903205588,-0.5959004130787013,0.24691131040074107,-0.12779439683079835,0.4976640231313632,-0.4302127491969813,-0.3028477367371337,-0.5975556162245439,0.3056304447642839,-0.054227541626343516,0.13288879665319112,-0.29093005853654114,0.20396302183329346,0.41801998643298127,0.22556269765705558,0.099689904036644,0.4645424650235677,0.1979078631456194,0.2933540556274886,0.10914714780629668,-0.08046495760211507,-0.18698315244895256,-0.06349382606241118,0.08421086487990298,0.005260097599646818,0.5153092242821034,-0.1805097081940178,0.5273737239087262,0.106574937018796,0.4306986561571186,-0.17342654703118351,-0.09314577411693027,-0.3046005618336025,0.24230352801016436,0.3756498408532407,0.081727885666088,0.262734279051936,-0.08284288529745411,0.012084773304850008,0.4748179678023697,0.46193351823979395,-0.4611894569668401,-0.07508312623020937,-0.2481098653719898,-0.3507997052668706,-0.14469537319801212,0.19572727520875163,0.15482415045875236,-0.42176211622899124,0.24833237098500088,0.3178290594967046,0.0681100345155849,-0.18861850615696735,0.29305115479930033,-0.10763378420849733,0.21897823227983518,-0.26860012383742204,0.26087118161536066,-0.38068502847731667,0.12144937258171935,-0.480073850129639,-0.06259901256033772,-0.1197878247467521,-0.15146249441119394,-0.503356189985769,-0.5523632999066059,-0.13758845192824867,-0.4411914678406513,0.02061906850782604,0.3801566026399551,-0.3576881280138846,-0.017026474559553237,0.7334423357255405,-0.6011532050886927,-0.3874317611093411,-0.11291608489889232,0.001286952746713231,0.38650205396643034,0.04125104861535052,0.3318574250438662,-0.22917338028943202,0.15293760434929787,0.04723982373089725,0.27074604663968127,-0.5749887274673351,-0.17459332086770366,0.2467063939253523,-0.44115252860831894,-0.1430775408571263,0.5620263615214889,0.15604284314347477,-0.07727399219294581,-0.7825933037391753,-0.026359777130477675,0.4523716455271618,-0.12317907024671179,-0.225565172126298,0.3670089498242104,0.02160234160039653,0.19294470726300222,-1.4984057998294047,-0.9281015819195961,0.20052406151932087,0.5585200984778721,0.3316012645164454,-0.509069159956427,-0.32370466859361885,-0.3166655530305857,-0.44985016232158104,-0.4089788175557088,0.2447559601961835,-0.14372319420109997,0.08803821591045893,-0.4210626159571635,0.03055532810045175,-0.2851350021240439,0.49044094975568026,0.2678433286395519,-0.22286536606426507,0.1729090090932019,0.3970293725971741,0.49568031713327404,0.2915006471041233,0.30896303406217035,-0.1788464714268335,-0.2600648807490563,-0.10799186349004929,0.6794557160578806,-0.05697369271996434,-0.3088158167305228,-0.13036065964809943,-0.2043433144299011,-0.3348661646836678,0.21481973025884188,0.6035024406166615,0.33406110560034274,-0.3153148835749966,0.4660832782870049,-0.19014339533936678,0.022068811131931317,-0.17392712449799327,0.2215295734137502,-0.47734013993004837,-0.4014435714620396,-0.49632785766174387,0.597976179226044,0.08181668498174828,0.39322194219334583,-0.19651884837859093,-0.4412777138198237,-0.10378204288183467,1.323111380126982,0.07228076452810121,0.40859385510363855,0.21404892458779448,-0.1290393295067734,-0.2188319796364095,0.08920255493238263,0.0490219634290113,-0.5183827106653951,-0.2440878509038451,0.15520226698406217,-0.3494237328829842,-0.5203623548283273,0.13865132402752514,-0.31090479823016903,-0.36313534068308223,0.08126488568633476,0.34241478347593823,-0.08979502935441934,-0.12377235425042067,-0.5475054219467536,0.2572733207005314,-0.3571368513471517,0.05888692681973036,-0.24993287343479495,0.13877451520247,-0.46713379660410875,0.26957160653288564,-0.19607519320106806,-0.475158770986035,0.4893896501134041,-0.09251334315954977,0.19313925013608593,0.21145423381376377,0.17724980720340824,0.1274960032365004,-0.12716148189557197,0.19872578357073895,-0.32809017666213935,-0.41479220737153183,-0.3031364875798432,-0.3920667639091114,-0.5540646447463854,0.39835386480857443,-0.2802040398384276,0.29034855711332513,-0.20316754336284557,-0.18784813215715437,0.6056681231725042,-0.09391582424653262,0.22963639883954776,-0.09945950180344085,-0.1343576472310809,0.4530570883016507,-0.2569153234099092,-0.13923212378938693,0.4455106418279068,0.17365559895784066,-0.04747996341635793,-0.36222358431133056,-0.18874164330632345,0.11363794057645966,0.057947474594532665,0.5179066329069901,0.02150605478162174,-0.30060597112925735,-0.07887394044668228,-0.13297081404338665,0.39718106302231865,-0.022809000522078113,-0.5906574291566494,0.9301636522291249,0.10112990635144423,0.5053517504305499,0.7680885152136546,0.5424619800971657,-0.16986262241978634,-1.520731175946652,-0.6989302978066038,-0.019123383744924397,-0.35559156682003523,0.1863941861220053,0.22452699514918834,-0.07476305220959437,0.2989010420959769,0.5774500149240938,-0.22344604532888943,0.440638419497688,0.042597290629111724,-0.347629164349934,-0.3256612279282295,0.09429057642649648,-0.16012425475299183,-0.16951193749923013,0.5972092290143811,0.3083139831506187,-0.39795262198836395,0.5565412490004198,0.7279516562386646,0.5356622625528811,0.3618692618475353,0.0869141817217025,0.28825961206809775,-0.27438927583391737,-0.17544132232619283,-0.44501778953508964,-0.681281462342325,0.02819626725864627,-0.03908898768531564,0.26815899094253054,-0.3805380275276648,0.7820826363745382,0.2907533769916417,0.6702691705002268,0.19219872182557102,-0.04997135751286903,0.24291375375441804,-0.20580957770845845,-0.5212103072736158,-0.051111002524300696,-0.36193733689095947,-0.5152141921761183,0.281355564264682,-0.17473747831159114,-0.20021489646014437,-0.32089804475650296,-0.4791362913813531,-0.2255153388878847,0.6938873981194736,0.0418944744517864,0.7658998060536482,0.0602070200383125,0.1206807899178659,-0.09007439780943931,-0.3497738711752521,-0.023765503378190774,-0.9054327491196553,-0.39166431112212563,-0.00967582188934883,-0.3688573459054177,0.19075753789523164,0.4409277671593384,-0.20897723115219102,-0.5607435552935922,-0.3213278561613945,0.134462216693773,0.7801583781427972,0.3566729683494141,1.2657750459727215,0.7223718690776743,-0.36161939701164425,-0.27935794983528034,-0.3681054192227048,0.18871715038968584,-0.058227312541966544,0.908240284101604,0.032190636026074644,-0.4247243477297832,0.5284875438131014,0.08776499905393323,-0.5459491027188751,-0.32184406529810855,0.6994003794130528,-0.7057949265580885,-0.584518256284264,0.23156528391384498,-0.01813841991349,-0.6117467589127479,0.19503722590486372,0.07574569298933115,0.17716873743136774,0.4814615830651395,-0.3225607070733069,0.0897047540310023,-0.44567480930369896,0.306540044647547,0.34095255941043606,0.39094093124991514,1.3943568054931463,0.2546469976268776,0.3230115959169029,-0.30936160395378304,0.24096816584109393,-0.15464654595244184,1.2717962564284024,-0.020504263678461258,0.15917630341457603,0.18089959250875834,-0.48095763820425586,-0.6458887911594119,-0.4393967946090585,0.8586183816970357,0.38269157131166776,-0.5411857384146973,-0.5165980909368635,-0.5767179773234526,0.2734485413316022,0.5679020724940567,-0.432022761996653,0.24966214109645368,-0.36464580750420855,0.1609099625077694,-0.2193004555279574,0.39546716321458936,0.23254069659571447,-1.0671119800758033,-0.1655414730103914,-0.3044426499463705,-0.5813786832762122,-0.4937419594271689,0.6078373860311996,0.5429126942368032,0.23717198141255186,-0.1571505462010952,0.4319670601429087,-0.1754694969437779,-0.21330268072883127,0.9517039844910486,0.16885142965686492,-0.634270884879346,0.25917331138117533,-0.9372199694527492,0.3812163418364624,-0.38259175690575686,-0.2502149409453253,0.221213134816738,0.22858436090973067,0.4934554922659073,0.13689195080085814,-0.5356000692102086,0.2070241479293183,-0.23335505911536866,0.038369963868680655,-0.5417728635483282,-0.8122401608149905,1.0281211361633702,-0.49393588764958724,0.07730592326836304,-0.05704757103498821,0.7897169578532875,-0.13362822769644425,0.4327742326674746,-0.42098539020917647,0.12246124745126821,0.10771667527965086,-0.2026573943289489,-0.256424146041536,0.3077056348699475,-0.10082034959586895,0.1686707892958642,-0.44274987536587523,0.39399194833462675,-0.4419416208969527,-0.39281773839844736,-0.7330395151477488,-0.16436124060040158,-0.37824936453390173,0.32793587848292255,0.11551120377044263,-0.47186433081817375,-0.14006350869162948,-0.7774130405950785,-0.5335568068807625,0.3294814866281346,-0.6350281044093379,-0.028968880096108745,-0.6919177436492192,-0.37082689911339195,-0.5626137601051773,-0.11176767666815385,0.1505862626230438,-0.11353456815175904,0.2266016819840988,0.1386434379908726,-0.09897441007972678,0.10099368423428783,0.510115233135199,0.1428418138718218,-1.0316951436413582,0.4562469450450642,-0.3242713888746433,-1.0724091640103506,0.24561827600129724,0.06502049606562871,-0.48693295101092604,-0.1145088126192126,0.06806328953521389,-0.41478196424280284,-0.3393716058632056,0.8323265106709927,0.38510080724534146,-0.21359300473835777,0.40241878900527966,0.0933805856280503,-0.5363527283696891,-0.03882697168640534,0.2802141404772776,-0.5180539904098029,0.10254325303560181,-0.04242096842557397,-0.2758881910036803,0.15153775974225445,0.03738213395847703,-0.6911243348948283,-0.1022621715657647,0.5309213282927883,0.9154357718740146,0.08433513734046093,0.04284306187562929,-0.43495333722053103,0.998297856968771,-0.154794755902769,1.0578721604139527,-0.9361673628682328,0.28664434071861494,0.20939931478066864,-0.34585600845519804,-0.7536988056258327,-0.25728420754899434,0.17565048981933745,-0.35616575827277686,-0.79533847847185,-0.08223980120150726,-0.08176648731769985,0.11512192682715158,0.45932496171944287,0.9225668321568544,-0.6338510291796741,-0.31366864907222003,0.4449369305903976,0.6780210492947797,0.8459685194245331,-0.18595300855935307,-0.027257583035556546,0.3501300717369956,-0.12771575121487785,0.24027649541066926,-0.030523074658166324,-0.13930091345925755,1.2546724255393802,-0.21297460415143712,-0.706772496020218,0.3093463620389274,0.38665660459833284,-0.44948255308938245,0.5618267878103922,-0.22526909752840255,0.12799097178065624,0.43442903158660867,-0.5476752837327116,-0.024704811538056575,0.15716433855244175,0.3667463611678123,0.7581054011925682,-0.2809804646781142,-0.1530588705232379,-0.2674731741641464,0.15082541573760805,-0.48243669291992697,-0.7011325156277041,-0.14882599316472406,-1.035313475122767,-0.3943095139987748,0.6558658383071999,-0.11227910090674059,-0.23368136753136556,-0.584586477212527,0.22997638469888737,-0.028189748253999003,0.17716364513004532,0.2778685401469523,0.140039403240252,-0.5100509890409455,0.6385449590611125,0.3163516717317131,0.39035557078454797,0.6214638365521498,0.3357535121897235,-0.3682216861674,-0.3516990288713139,-0.6236388605653455,-0.02768949529415339,-0.815061458844505,0.4094471356046725,-0.7966755258008582,-0.05364092291687806,0.17626386423095128,0.351108378432277,-0.2039981320822904,-1.038614566868481,0.07652596247737395,-0.44152714429147516,-1.2251213263005687,-0.22654379475321662,-0.06098900551840102,0.3763344018547608,-0.2253645074023717,0.3140842159307873,-0.10047500879411282,0.20707740502516603,-0.20098345530585243,-0.3868674766381428,-0.5133596754243908,-0.5063449756309992,-0.42766871748135526,0.4030903759887224,0.012938838782807759,0.23366029949845799,-0.4459308077391587,-1.309454449895011,0.7686923658321766,-0.2640521504978566,-1.04390034283166,-0.4185723512734837,-0.013147049110685817,-0.055202198228352393,-0.7274217517000621,0.3366555582826086,-0.07266743579560833,0.5165130918522144,-0.18866594989538435,-0.3594038282758966,-0.6670257625087173,0.19087535737245495,-0.6828363844245221,-0.22109496756244243,-0.2501211818529981,-0.012834597966005891,-0.591761296439777,0.36020809999559716,-0.05607943970378331,0.3529746334505498,0.846449408850565,0.6941209363920106,0.14251120557981853,-0.02191351877365264,0.5516787126630976,0.5169616062671148,-0.18577012748367017,-1.1190702104788477,0.6241780539788815,-1.0186693210578344,-0.13535198617149916,2.104936861570072,-0.07655677287457223,-0.6513844482392018,0.4923320374780284,-0.29177511159577785,0.3356496520899019,0.5992769292003174,1.0557188758034075,-0.2776066934709354,0.5308638429436183,1.0196439703767683,-0.04926475784554135,0.11694747349261546,1.174432567402821,0.14276041880042584,-0.24266576602139037,-0.2673278709873879,-0.19285888361640624,-0.6169692543820027,-0.2462972765838022,0.25238053618188216,-0.10482197723465578,-0.4094442054691931,-0.6502401213155087,0.7948440220429954,-0.42801080004441017,-1.3924775362314263,0.9180735273338614,-0.13168362080079968,-0.39290444687577636,1.4753568894953115,-0.23270608424703182,-0.05476582323040441,0.20276355705713775,-0.5233951977600866,0.37881669555029,-0.2505283171470863,-0.031113809452645816,-0.28530898358960777,0.02332560825450744,0.1661286319149466,-0.4307414356698275,0.5039078875271831,-0.25960415888049576,-2.005196653346322,0.7330627351712156,-0.7285702402171762,-0.17715006352308382,0.3460148688302993,0.4199259122343899,-0.1606188770702269,-0.08424663735615642,0.6577520927020629,0.3427526856635591,0.23283032046550933,0.3715455637911264,1.1557457047243194,-0.1736128192334636,-0.054720087444972705,-0.10752238116095789,0.20123072148294766,0.28594561404400676,-0.05410021532718261,-0.3918184256722183,-0.24959207371206396,-0.47188847531689393,-0.11490945025582187,-1.6237291232534719,0.22666754433016167,0.34341657860926916,0.6138468660368326,0.285980983660135,-0.174850942538635,-0.7605424170122469,-0.6642745000230579,-0.5342595604255932,-0.7027727875368889,-2.748377887880011,-0.11140112233858343,0.20468824779305123,0.10035565539448665,0.4314345851562863,-0.29418307798696613,-0.6981687282327135,-0.39890175817639584,-0.5044340086864042,-0.12225376379953823,0.5874475735028463,-0.7677079016631972,-0.18450480466860264,1.3315896244538872,-0.022571770492312695,0.5185357437695514,-0.9966128700815443,-0.3787667328074542,0.364955587020877,-0.824877418388883,-2.2554101388536516,-1.7656985469624376,0.2988260247428202,0.8559710523130144,0.16981229826269134,-0.7302751499830693,-0.9280073928725072,-0.08884717170568247,0.0005456493349567104,0.5349050617146296,0.09167240367085142,0.2399431434302996,-0.3845993608631242,-0.4600732081370318,-0.6867706982322596,0.5169959963587845,-0.3816486721973228,0.4784991486146131,-0.30826254088940924,0.8877876744561604,-0.7602423159969666,-0.5736997548195639,-0.28235643564325785,0.03214748718850123,-0.4491049904078902,0.9492183178384,-0.21082928678398336,-0.7574321612310633,0.732552952794114,-0.046120397581374734,-0.855634113616173,1.185590682536015,0.1897824669538919,-0.5834747780732322,0.5592640924413795,-0.07372942661562162,0.06364889027388056,0.301909823226921,0.2979264911024887,-0.8687666612736196,-0.5551999913978133,-0.7546154746494886,-0.7298959542434635,-0.70826396645205,1.3656707801894883,-0.0900263212475967,-0.7992637944956604,0.6270276465317727,0.2582401006301763,-1.7330542285951656,0.13575610481033532,0.6497833929541159,-0.11877376631589677,0.2080845469919818,-0.2985483080388078,-0.3274807424413643,0.04681582123108723,-0.32882262304960286,0.23745894614215796,0.38139882521459445,0.9685616981519801,1.220019601445213,-0.3578582973412595,0.5050594479174436,0.17343171697029816,-0.5961140198728812,-0.5209693616060344,-0.33902585831516857,-0.041832337607961616,-0.3948218773069591,-1.150986759998247,-0.3414340638457609,0.9686406494782365,-0.2009866718244241,0.9145225611070797,-1.0156955548003732,-0.5015815782950612,-0.5120351162550798,0.8516177571559475,-0.07743352788418939,-0.4103992565347797,0.3535938146712697,-0.42813105191031936,0.9000763122355434,0.4319143846012684,1.5021624152811084,-0.006148377519382717,0.4399934230027355,0.13230119181369385,-1.0409642135352069,0.22997066789221246,0.11532573893965307,0.818021121502624,-0.5083461783164587,-0.6480838018667158,-0.3091499650347912,-0.7539166555500991,0.424067221341522,-1.5674854609631714,-0.0032674520921274317,0.2240652923303691,-0.16977032610173162,0.5626996628278907,-0.534961812066133,-0.9454035748803417,-0.5241347816321325,-0.24879869126767268,-0.6826870578544147,-0.3426700682756729,0.7262320054260586,1.0001803502368456,0.5038249532859476,0.1300946858126911,0.4488913342900509,0.017166430993732544,-0.3766460068045389,0.38494269399414976,-0.0422033325936089,0.6796711827136426,-0.6312858242729688,0.7857364630579291,1.0179849908464627,0.5822435927523556,-0.013500229681591716,0.5701086096668404,-1.412102118266714,-0.3004995282057374,0.5534341590299096,-0.24212894322400383,-0.6629269364792398,-0.3914141887302294,-0.7075307499629445,0.38102867396467455,-0.372538625664235,-1.0681623132824358,0.09729357583662136,-0.34890368409786476,0.29345483050571713,0.36447864217474185,0.3286945309191217,0.8001251334026326,-0.2414570620537927,-0.516747510700503,-0.019389207627602503,0.5894045331891181,0.5809905135965563,0.31702560664624213,0.5085476562059108,-0.45623897810370034,-0.9285899363467099,-0.5086629605447213,-0.6518215455132432,-0.4479679619686253,0.9590055327656327,0.6962775332976885,-0.844964051041506,-0.2754249057385761,3.0950832677453186,0.02998540773055019,-0.20653984352026195,0.9564114095782787,0.2745368311006205,0.205016296685651,0.19437095668144844,-0.677434530351464,0.3900441913029091,0.34912133195068396,-0.24583524701312026,-0.7502104033234465,-2.0148155737808424,-0.05485552986755741,0.5543825828454958,0.6904092262920097,-0.6070763222100632,-0.6028058480916317,1.223707919667578,-0.0831824997223485,-0.5949925874038086,0.15174943849124853,0.6570279491476592,1.216440351156795,0.14504404798200982,-0.28224504369462583,-0.8293789017461496,0.15146638652695646,-0.5356481530865684,-1.473517213442532,0.42343774628881853,1.35229150595264,0.7880372261070133,0.43404519901494404,-0.4617420479075621,0.34417857642328237,0.09650096476685403,-0.3789855903775341,-0.10608021936995628,1.1649507557821983,0.6678472689223084,0.12938991759241555,-0.6115324410957527,0.43589612574177933,0.6619153318211768,0.12658396856088505,1.283381377407118,-0.9305243305032215,1.8881195538221691,-1.2615118661176479,0.10840381494690421,-0.5002984450369233,0.15216199461764715,0.274035596676616,-0.11443188796695865,0.1598135917479478,0.2507358329140787,0.4131614803965812,0.1799010139260951,-0.09331618416336956,-0.04058276560076118,0.13758046950864292,-0.48742745743670857,0.47758539659796556,-0.26015770762537804,-0.9727398489798029,-0.421736657660844,-1.1452354929622506,-0.46685449326980855,0.6386811013584331,-0.5034222859380008,1.210580612768653,-0.07320546296763661,-0.025480210247260854,0.0671612625230551,0.7009853862500404,0.11161860560725868,-0.17970625555974823,-0.1055025792476095,2.2967783139678812,0.3478856939994643,0.4439360789053222,0.15904089849768296,-0.04674926073818966,-0.6545657391748071,-0.018984873139486606,0.45086616412226166,0.09258710203538059,0.12291048891909795,-0.6583068335683401,0.5288427443378759,0.12051896415308647,-0.27770773967545603,-0.880193593708398,0.7782775408233862,0.6671759132621949,0.3344619191051389,-0.97235519262758,-0.27803716104761106,1.1216850488016303,0.7733774469719051,-0.5432429480616293,0.6234029713688045,-0.10725768112950458,0.4310616621335636,-0.3443717621450091,-0.46215413189889387,-0.16138739438046296,-0.762410121687923,0.046669480117704595,-0.15424127334860854,1.2071189008960437,0.5197598267973621,-0.1633536977789828,-1.058725030707969,0.7582937441324881,1.0993665654130234,-0.37614106634636213,0.39060139148982165,-0.0977073311295058,-0.5302280649382283,-0.4831063118074527,-0.019531520641963427,-0.48413033773364905,0.10475046737397514,0.4063392733970301,-0.5404649294451803,0.549961671206399,3.123705423811407,-0.8359216604102963,0.36833364599835566,-0.5359727238867665,0.5106303852762796,-0.08511561132689002,0.5862554835795581,1.180063338779832,0.8600055571559605,-1.4823999438518631,0.33669706902257396,0.2664933296818262,-1.8933827502311025,-0.37231444410939385,0.7675864626444139,0.5667226765886942,0.1006196564750276,-0.34932140317760296,0.27707912296867954,0.18710984247008727,2.08494093931413,0.059279789556900504,0.523995482882557,0.9623663844639333,-0.4788851643735725,-0.04217979986101551,-0.795857740300635,-0.7978095702919507,0.21242129241338534,-2.13589601330906,-0.38456497192545036,-0.2511695224596091,1.587976605697711,-0.10437219566885989,0.46978909664452795,0.030133051713505245,0.02055793723631899,0.3207547976994871,-0.4274160860784096,0.5527403881126379,0.3472038558357315,0.027542183448024102,-0.28953457318912434,-0.839915663985301,-0.38532565510926575,-0.7718086584741156,2.6062627590237044,-0.5691858053240264,0.8622085106773872,-1.0928123549908737,0.30123348892264395,-0.5174066332926394,-0.24166253935296825,-0.6079177918093999,-0.031267121569235834,-0.25073649251907876,-0.0473944709320199,0.1877286104931361,0.13383663401366958,0.23145796385603593,0.22680705125521736,0.4352546945313299,-0.7521006287408019,-0.05380375798602453,-0.5681883799838753,-0.08548045224036431,-0.32697869136861374,-0.5459942524218846,-0.05839841695450956,1.6432246563645183,-0.544582190997901,0.01847472171350307,-0.04302575090006653,0.20161063411733948,-0.45449134152275217,0.2827615287274391,0.41917232628920503,-0.11749207835745135,-0.04033522324433512,2.1124359063503415,0.7407562282562412,1.0558729138513694,-0.24400215797366043,-0.4576037581636096,-1.4342195752844347,-1.155899027822132,0.40752338589225134,0.5789932805623835,-0.2707997083437299,0.8090031120257802,-0.02712934601319716,-1.2930863234206225,-0.7575974526250051,0.7611376857624579,1.5849360087273598,-1.0679403128667797,1.040911984443929,-0.45880188628894275,-1.0022104078081577,0.215764292932016,0.4354470905903854,-0.5036955394090714,0.508392998619151,-1.3676302799723827,-0.16054350688182625,1.6592716601836253,0.5518931990655129,-0.11982771592643733,0.027718032829620504,-1.006767493753433,0.5873905874415876,0.9134173449425875,0.9020846429923827,1.0680367689676267,-0.07022112631853497,0.15447017613668876,-1.3596047382218428,-0.004823156214257474,0.23587932392631575,-0.22406169859667116,-0.8927145796863949,-0.6291598024966675,0.1404880961630132,-0.971146046823087,-0.7066620813457926,0.37992934556318775,-0.223556309537219,1.0091175363770524,2.887460428908211,-0.9178717181590764,-0.06855059087483896,0.34593818810279453,-0.24667907661936542,-0.061709195692277334,1.2614683925835903,1.050148285939687,1.2595619445019302,-1.1224583105023063,0.6356010856721115,-0.017482904057955703,-2.0018374961408365,0.0374967228120137,0.32255134005149305,-0.4228419072976187,0.044583196679483496,0.06417339817125664,0.6480672911329283,0.4990420347602113,2.136214160202224,0.21592065391208418,0.2859302196231255,-0.031002554114676322,0.31345255731475397,0.3747492902909976,-0.6617990771858996,-0.31089197158259846,0.2611234660404607,-1.2844129854595754,-0.44118124755858545,0.014875420442907536,1.8817605110517204,0.18713385019898593,-0.34983805121848355,0.10922120744167847,-0.26313786478492207,0.06007256964457084,-0.6296963865591098,0.6017322920806992,-0.14021130487087524,0.9536748688815886,0.7420298245138675,-0.7422392537999558,-0.3749141051175997,-0.425435253567733,2.381974053162239,-0.45708476854420454,-0.019595693134049512,-1.2651283566512537,-0.00035501575179224584,-0.05766671042938623,0.09792754200719976,-0.9253652576777851,0.6002371635735143,-0.02036831497871917,0.19184861759513844,0.3862208120180773,-0.44705074172143505,0.0346324579085059,0.47467373131990576,-0.14816395584807265,-1.272578866159024,-0.03734950186062956,-0.5852552949480645,1.3451911760087534,0.31335731265280886,-0.48018233333377514,-0.4317300864741526,1.5024448805067032,-0.5315059454427797,-0.2979607503504912,-0.6135528392705526,0.6054192142411778,-0.9290426761697373,0.8322719021341094,-0.6683088017429006,-0.23990132774032763,-0.2124681583223595,2.026445982438059,0.5936124409324958,1.8157561159779823,-0.16101905589824708,-0.49926514910637926,-0.39654073791357064,-1.377797985523955,0.49238939379701446,-0.2070386548899043,-0.7181586756881321,0.7541421063285021,-0.46552966037324806,-0.7601645987147829,0.23614241108797446,-0.2054584875160187,1.8965352703074918,-0.6884163058493579,0.2538951335552547,-0.2099329586265537,-0.2686794099050593,0.25424329810975477,-0.20739104557611018,-0.29817609574886217,-0.33445281505269064,-0.7352144567910991,-0.13146458552199783,2.0542020959704628,0.6543308229012587,-1.1361379703278345,0.27126540756798906,-1.1483433194198602,0.9097007514198329,0.30136005136692867,0.721970992906727,1.4450640677616626,-0.15567600423973577,-0.17934994294730228,-1.6996446782751844,-0.03458787951171158,0.9078891823858902,-0.5246741842236184,-1.305634478784212,-0.6253642242360463,-0.22975982071378986,-1.1708656538441202,-0.4432411761569234,0.007026589905181957,-1.4145428736872818,0.5191375232987989,3.462365141854917,-0.2736231470263076,-0.3160470366644701,-0.18806576268086628,0.13533899911122954,0.3120560267947345,0.22409939207214008,0.4766439312809436,0.04884097740481525,0.3738184018080027,-0.19861133964851949,-0.42207488108320934,-1.7940830148892626,0.3035032835816945,0.9150064834982122,0.13685728556522922,-0.18306757860887496,0.05789475668596878,0.12052423991736409,-0.14884597170360597,1.3416272164898122,-0.2735270375477197,0.3495936200506162,0.22868282192633368,0.0948788100337474,-0.6778820825082178,0.07190564537103149,-0.317556121665138,-0.43068076271338834,-1.9206499867283204,0.1953410641959234,1.2329315748117755,-0.3977410782066984,0.6245949043329417,-0.23131892883129315,0.16995825983752,0.29608272364359695,-0.46592351301006235,-0.39783558133529534,1.0729393489664356,0.5627362091870217,0.38625560267239556,0.517565633205894,0.12918243234361912,-0.10200541553435054,0.04361589748922281,2.508718027062717,0.007058484002501211,1.492397595387061,-1.0678798850559044,-0.246200100491917,-0.6290417914767821,-0.23744445127167402,0.31691733346322115,0.025199495049200334,-0.11126263148887877,0.10387604539033028,0.285118348538748,-0.7159948934518953,0.15800084750983237,0.19624207081227335,0.6621075140330351,-0.8394382846560263,-0.5303660504431352,-0.21601594467480864,0.8284763061293605,0.5387603602090831,-0.5316757099816701,-0.27920891800767234,1.288580018758965,0.08690520884332989,1.1093710563854535,-0.2514691509169939,0.558643472016943,-0.49237046855047334,0.7076587670226702,0.004374026965281554,-0.27002035613003955,0.21288235690373836,2.1319351702867206,-0.5130926641179278,-0.18958917023058797,0.22421187293603176,-0.319028191950039,-0.590246167978735,-1.1491652569036306,0.33317498199122497,0.007739446772389445,-0.18657591496389359,0.007150980609040394,0.36420454132870367,-0.016579509329479762,0.43791718393073814,0.18164678346995744,0.009575227809776465,-0.9053198875197543,0.7882170157505435,-0.5872790101896318,-0.7709106644149859,0.6109436854559539,0.07261060311393262,-0.38442168534834387,0.22640729033075407,1.0593519624345293,0.6035018817237514,1.9666372744723752,0.8596788571090384,-0.24019804013100138,-0.01569557409666352,-0.7553528042052445,0.12789599432112958,0.8607903135464813,0.3000511721333963,0.5345517610300603,-0.11684448140633642,0.30974303320254787,-0.6815407041402336,0.43254453556678574,-0.04637463731964196,-0.3615318555783139,-1.3116733482136453,-0.580232887579712,0.34635969487276624,0.45887409786638156,-0.8689437501249666,0.08438111923598632,-0.7432511287388082,0.7339081028602521,0.5445639652150356,-0.3593038781567776,0.3766467199193761,0.4622521896033847,0.33552022302996315,-0.5725278596249873,-0.5414806132291407,0.6610801959903475,0.6678782185061686,-0.3390063057350567,-0.2915227634115414,0.6321982007056226,-1.5430112499441662,-0.6664923532869272,-0.29989679727545265,0.26829170910951483,-0.1824660043844853,0.3565322580339988,0.6825959343044183,-0.40990054263246856,-0.6116019800663474,-0.11742179536149663,0.563462955532312,0.07007946888426446,0.35759909388779365,-0.6353718744077673,-0.012931143462858999,0.22078831338936858,-1.0927382780515345,-0.1556885367645021,0.28241815728904174,1.0474274902134948,-0.08986602267817022,0.7037740995020942,-0.22613965324667143,-0.16174571567533538,-0.11827992827214272,0.14171907630369554,-0.9085847423460967,-0.13276067138095446,-0.16340131386098697,0.3890731438033004,-0.22756407251436098,0.7404727844444219,-0.14407727205649482,-0.11310955386214025,-0.31305247071373926,-1.4316361441523635,0.737074550188793,0.6278329029420271,-0.38136970947565224,-0.6489148706423887,-0.7630469340575009,-0.15685166272636872,1.3453742310959247,0.3702568623893963,0.293456338775955,0.05784907831034367,0.3745955531681415,0.359831140485948,-1.0631630644893397,0.24788037489482087,-0.009715737913436997,-0.17409443460302323,-0.3558886294643423,-0.4116269792682729,-0.6460708733531846,-1.1060776848806482,-0.4353397619447713,-0.3490581209777634,-0.39046469123864214,1.4624598894320284,-0.3846070272465747,0.3000053002766752,0.2589757480509559,0.42467144530023493,0.048612183460095305,-0.17861793604415194,-1.279696185871444,-0.2052239520369201,1.0780927981558979,-0.6740684360084425,1.3737855769623097,0.3385921366969452,0.004035346094636671,-0.1775025737502219,0.49875337310157597,-0.2314598122572927,0.7120633920119037,0.8557512086217648,-0.6444643864843737,0.5333947841814997,1.7298256403297638,0.2163599469812517,0.6540679594685369,0.8695752468859892,-1.0198780653096928,-0.47909844091479886,0.06475532141971665,-1.1150204002953932,-0.7768162692898017,0.2524451010367892,0.4955270764517335,0.8381184929059684,-0.004696372745451004,0.1284493592341472,-0.7200724999544327,-1.0630787407801705,0.04502756594284157,-0.49117704454114436,-0.026664124532329116,0.7550371895828908,-0.6093257408759359,-0.5103616712508703,0.5329753294179119,0.26754675216247664,-0.3505175738768689,0.048515064430653,-0.13845328938561355,0.7784480314341506,0.0033538618565385867,-0.13471896371626113,-0.051411901456063974,0.5935071999245525,-0.36518513493314536,-0.42238725760862167,0.06763752620990665,-0.5221027193745965,-1.0758081067576004,-0.4422188620521848,1.1926837046777987,0.2213360240758749,-0.3949018100831583,0.206346049676082,0.8316160871345648,0.9301850476202618,0.8450182261047797,-0.3237280604765031,0.021675951486756686,0.7754567474924511,-0.9252324516577994,-0.3354707729953248,-1.4033455338038503,0.7227776676047727,0.3300827947984123,0.015470674078479438,0.7581224344472747,0.1506574730962651,-1.121015166059895,0.4549406165403903,0.0016997934197426155,0.8047028949073883,-0.3628974692513175,0.058013816077740296,0.6667475507363032,-0.07720338415521465,-0.5565642197561803,0.7817510851353079,-0.1894304180123008,0.45632845329256083,1.124298937816858,-0.17549369315732027,0.09021014382904961,0.357198799613976,0.4044237339489193,0.8390689703067769,0.28110868787759313,-0.602415789892578,0.3899439706942714,-0.5001193065919398,-0.4888688184232068,0.46700162017700997,0.8510074926560678,1.2220862167989286,-1.3493615995580557,0.041846681837714804,-0.20623150068443694,1.4330333650281495,-0.8058306208976924,-0.026742582596833646,-0.06583542156580205,0.07059356140184911,0.8990341606914591,0.07106601528546073,0.7865990998112847,0.10315193649609017,0.7603626635062876,0.5870717863623518,-0.31573026272852517,-0.565532803665264,0.41792192112427845,-0.3895640389587284,-0.18932830985543878,-0.517434695257728,0.21758089899139582,-0.02040341390598246,-0.38337109724480717,-1.45390134161604,0.021012284655488492,-0.2530431171509016,0.03292245622319252,-0.5163282075698814,0.3256817212333254,-0.8642142970353522,0.42631683134678117,0.23926048519465593,-0.10186820868393226,-2.2197615129384647,-0.14023420983132293,0.22891677218030154,0.17085777733535668,0.497940804634399,-0.6613660010860413,-0.5850379084037741,0.03255626855673308,-0.22321419790770874,0.28861511118584765,-0.017011147791521162,-0.20939723691602352,0.3755422621881121,0.7900512528843918,0.891869036723126,0.5646287850583692,1.1131944616139147,-0.5998401548370985,-0.05206200898394058,0.4578019175267072,-1.3422155981485004,-0.7066109269312423,0.20824828900074505,0.2948519383454044,-0.6174237396893921,-0.6467786506258462,0.14146233164037383,0.2685509861243381,-0.2471156316825496,0.2704730741693632,0.2445508736280003,-0.027397150442447126,0.0921443297027191,-0.49775310004059564,-0.42622218998126127,0.1565105376077713,-0.03241532800565476,-0.34851810021573604,0.4842546066613515,-0.258191114472192,0.14636525533074812,0.324912579290994,1.5595080832165897,-0.18420197734850494,-0.01033327927835057,0.5198808117222321,0.32111791594785316,0.865623608561101,0.1235315144725156,-0.4197788359736532,-0.12446290854950065,0.6821110736839533,0.603679132707168,-0.43473746120002554,0.05480057444664155,0.2493133319103431,-0.2855104564082419,-0.18680481448101974,-0.5869824356697475,-0.004151476336578786,0.5931121722234515,0.7975414926320027,0.23640756693998366,-0.6446083465230062,-0.3921792007781993,0.28220160069578676,-0.1282704414970513,0.3010882311467669,0.049987254763689246,-0.9885181158036375,-0.16472070479107082,-0.6925615367298736,0.7123068841725125,-0.760199835150464,0.5128666427075388,0.4218771604038094,-0.2566055330236585,-0.0838851292460263,0.3457188250081186,-0.21901723005143203,-0.5470324187302719,1.842286932508983,-0.3373562419490081,0.2195993521007809,0.01924616520322848,-0.16477415435966347,0.5356614956169532,-0.5107968696383661,-0.673691230373046,1.1818939791142293,-0.48736620965609706,-0.5437561995342058,-0.23197944877296134,-0.18619104838273118,0.4277246617447749,-1.1383349579581925,0.12970368300850493,0.10472922539993969,-1.1149543101510868,-0.3534512969097972,0.25059562089658044,0.08782901099179831,-0.18779575869841633,0.9300986115164028,-0.45752296415859645,-0.05679897847692206,-0.15998980691198048,-0.7934734497408789,0.146269831526787,-0.31020902649394155,-0.07351230322579871,-0.30997956591225334,0.18644179195559854,-0.499269622520237,-0.8449743043930911,0.1265803066708517,-0.25704878223251326,0.2627614077456666,-0.8512930890980237,-0.30893539060897285,-0.013612759884334523,0.5092202359516612,0.2724020701619654,-0.39794723641018004,-0.2880347603891681,-0.3005581099150476,-0.26548284696389834,0.0969596630863356,-1.4774938999411884,-0.31269697396908047,0.2795374737430065,0.174991796392045,-0.348778731747478,0.23601542826550775,0.029846803356736624,0.4191771493174276,0.4019584782685971,0.07838347446772283,-0.4079101363303734,-0.2290400987867349,-0.8109276007968211,-0.24829491336479406,0.11199205267763032,0.8459028093927695,1.2461342188295337,-1.2779151340285968,0.7625573454051088,-0.8409410841321829,-0.43300155882068025,-1.0385910336478725,0.31090331849662817,-0.13408273088889316,-0.8681295255234666,-0.46581349374948244,0.3168879267904875,0.55474862657594,-0.41437069296643503,0.27158156193295246,-0.49661617098832334,-0.09371651635932375,-0.19019479371761253,-0.6069697951018393,0.0199091419935653,0.18872634741700856,-0.6960042699037908,-0.22806835781215543,0.240729304645979,-0.5792424004755651,-0.36136127643264965,0.502839789967738,0.8501606204340643,-0.027915592639406902,0.018977675883322588,0.17063125923146324,0.4846945102052036,1.330171838803968,1.6901137584509298,-0.7172523841776625,0.03435184767206769,0.16514094283614286,0.09479902953570575,-0.8744054626034429,-0.051839644293127346,0.18595038857909277,-0.35907225105390667,-0.33862058658077565,-0.7485148844680004,0.39623257703804543,-0.3051824693105443,1.0681338741600541,-0.4223536606790394,-0.49266124096751573,-0.7888494215605273,-0.39352971755131655,0.7552429913861513,0.34326259121560454,-0.014977621208061042,-1.06662093463654,-0.23779267097397444,-0.3831887648215137,0.8693854632880862,-0.4652168379233074,0.5157805191626211,0.8543518107811172,-0.3672701152447541,-0.277769003686158,0.5501616496398968,0.22937615877346074,-0.3182716086367756,1.0865946725823223,-0.32174851561109447,-0.34397061373240534,-0.28010764130017074,-0.7833410679784812,-0.010251021704390557,-0.8201959389921583,-0.1483024901152498,-0.049594193647989705,-0.39725571507822927,-0.16690227052012133,-0.5720374407209451,-0.6242773547762286,0.12928987077181708,0.013809033982410474,0.22753166075507236,0.5292884837019708,-1.4948743000050915,0.25116127999563376,-0.10367343383083623,-0.23183648765745177,-0.005329815165075057,1.142031534350529,0.3314878741283596,0.354981921381798,0.07856617804966408,-0.8468667767293553,-0.1917465527291924,0.016093167972831997,-0.515921718524803,-0.3347149608308653,-0.14110858500163914,-0.4462967795401783,0.062051767616926344,-0.3126559407441755,0.010130322551223007,-0.4683085282821115,-0.15519317108508351,-0.021723547945538695,0.15281736639741014,0.09941557752778996,0.27826951694505137,-0.41520546803763586,-0.7377774835944901,-1.3105940175339044,0.31644146083381497,-0.12266092723511897,-0.42992993266684976,-0.31160058009770547,-0.2886611616022217,-0.10474355208798909,-0.08493147642059914,0.4474062608992313,-0.11341252383510182,0.44291518809544406,0.11492112815240117,0.1351646411052867,0.625344722483287,-0.09334725708356059,0.315892377773554,0.4737937805397631,0.11135132039529524,0.6256680523252208,-0.17570436015699178,-1.0307636302265897,-0.1410582447297271,-1.0296405749336144,0.3612551719898017,-0.49307782331638056,0.1914138050509118,0.09602812973873165,-0.5378430501682377,0.4999851450821206,0.8442553733062276,1.338980095898966,-0.3200684537200516,0.19654803708069518,-0.1982651694856675,0.41341109709201,0.5062285718532817,-0.03273434801553195,-0.28191324470206913,0.6691742509242403,-0.3666575779366398,-0.5415409149850612,0.38579582661495354,-0.16116767075669206,-0.4584814444233277,-0.2788786602257207,0.4707122364376932,0.6583517156197541,-0.5645035692857387,-0.7066015504003008,0.419492104922633,0.47672320202297513,1.0650999546177713,-0.11360008170938321,0.0162608253007108,0.2660493380358009,-0.25600392485001505,-0.21473796770097833,0.09130307846780901,0.053645583998091724,-0.38649140716993813,0.08986102970547524,0.12334508589193208,0.5448061075318389,0.08538132557107316,-0.08876968412421399,-0.23813344897964506,0.007364191389251474,0.02619977638964798,-0.2511454240212561,-0.10720281578301465,-0.5177354147340737,0.3799326684208196,-1.4532611281237806,-0.31132870294714937,-0.47806398632912184,-0.33258291730797546,-0.6168360624826323,0.04942103981105064,0.08668649188712774,-0.14457957000591817,0.2792107250071494,0.03988070541610982,0.007709775595396058,-0.5698431551805587,0.05064408094335973,-0.7041838550906289,0.1680158935990272,-0.1423385613539255,0.13340041589246396,0.6452063411497547,0.11634426341981667,-0.11177888844451733,0.7782458103318738,-0.20384257180162585,-0.24334409317398445,-0.5547495116627545,-0.6260559075657577,0.4666244344022292,-0.24847693732745033,-0.31615022414889205,-0.3497557979909599,-0.5511819033429675,0.10882817769947652,-0.5124836066071086,0.41776511450573117,-0.11514578808398909,1.1864152164550978,0.6124055249469799,0.2869080978460342,-0.26870883746623764,-0.615622709245572,0.45334983026976755,-0.39771787458436997,-0.3818348585703527,-0.7377438340210551,-0.5376525509730847,-0.43533412940011,-0.056976848925931155,-0.34334075731675784,0.041289971259733944,0.2575124063712821,-0.631354083061624,0.45601045067973445,-0.04325532622985591,0.5180634288648537,0.47794714025264295,-0.003670766125910703,-0.5714022521748582,-0.10286090595079261,0.00938091939076683,-0.05146085185209535,-0.45373194430360664,-0.11764313979798618,-0.3475556032279786,-0.2596854741262838,0.19560751868762252,0.8111068353689332,-0.057538856849189496,0.6399801691323524,-0.06987126680474388,0.3178125959603378,0.0729658328792149,-0.4267437250476772,0.5638580401660934,0.9988643392901686,-0.27174902426225817,-0.11986322883846678,0.24984765603831166,0.22893134344078153,-0.31950962730030613,0.4819713355440376,-0.590214702737778,-0.5701535668564348,0.6251947333760574,0.15160708592169955,-0.7834531721052643,-0.3590430549308274,0.962033048834154,0.3035395485255641,0.13219601199733122,0.1462741021287754,-0.2768333885347192,0.6010748274649033,-0.3274270290771484,-0.4872024130801597,-0.6097268408611831,-0.10247337629170292,-0.31504987196565715,-0.1610719566800511,-0.2533300932496814,0.2573605976543971,0.021875976929554102,0.0033741508241718716,0.21434087502442206,0.5159808894779347,0.4714678537595111,-0.10465036866563895,0.2687128560105184,0.3374182154642903,0.21596018922340968,0.01700743391866664,-0.17533754163025853,-0.39367093568958617,0.4294368956106614,-0.2665293285442899,0.1684637554636742,0.19030173513969253,-0.16042009460750856,0.22095076670862504,0.0328419467236975,-0.045335518624024705,-0.7995104089964093,-0.81505089563253,0.6245383276332659,0.42717954919115364,-0.31179202834994457,-0.23307832632266265,0.827139953180337,0.3452997579998899,-0.27912983688048104,-1.1773520743383898,-0.15987453669519872,0.021629420141876438,0.34122369237631417,-0.00010142216522779461,0.3126298967571559,0.42056964918812834,-0.27067135326674246,-0.5675463687930036,-0.4702464206198827,-0.48275190787693967,0.4795789988112505,-0.25887651409726153,0.06827489579725884,0.3487935218553508,-0.2203805231438219,0.41812883428538733,0.07997296818544963,-0.2569419737706217,0.365208219315856,0.8129774382888854,0.055573495804134176,-0.3552588215865105,0.4390546925089229,-0.3415765381340192,-0.3397975466500037,-0.6810758485883307,-0.17027981176516782,0.03922237149621639,0.18168931852803366,-0.49633822537772293,0.2309375127198936,-0.20087473172186396,-0.10600047561761729,0.034281234618307004,0.4868354822693144,0.14847411408940284,-0.033326768717635014,0.0772471148886353,-0.21400548906142594,0.21629614407831774,-0.16604773541954485,-0.3042711658986044,-0.09097457474265526,0.0738422568678412,-0.11368803689425523,0.3349492027694437,-0.23237329575518423,-0.3889349319691716,-0.3006207923486131,0.11551445748610656,0.7503551290369185,0.31537411816647726,0.6276206585948865,-0.2884335077825115,-0.27723189236515,-0.3628992851847361,0.05742910474017978,-0.39902335084314405,-0.2625925579384465,-0.17759512554483933,-0.5105254720593925,-0.5092766674515684,-0.5295500353061541,-0.182082511016382,-0.07880925154062189,-0.40964987447614015,0.5358884245833831,-0.2747656948870723,0.4176588584215277,0.16309760731566358,0.23611934837792273,0.3392994431152596,-0.447144956824471,-0.44519503122301474,-0.08727044108846262,-0.5110344738489041,0.007655127822414648,0.33976574646508234,0.0983242058515076,0.5641640810527857,0.06954180563754601,0.6224953586252138,-0.34891977050273015,0.3579083158686665,1.0037420827617198,0.4862333975536974,0.2720243286504073,-0.24976017598032088,-0.039649026187024275,-0.15176823324736377,-0.1472212270520676,-0.2857196679476039,0.12135494441815342,-0.28784299564620136,-0.43359312814856316,0.20596760590805546,-0.2153981672558118,-0.09303166550629165,0.6209486729017563,0.3248689045977808,-0.29840331681344434,0.19442479835743473,-0.11473364042842805,0.02195641260043383,0.1637309314574579,-0.18807850285144612,-0.23431197000366882,0.1502931790471725,0.45004012194465004,0.4089120568994561,0.08959836614510733,-0.33304897488402474,0.3569899800242368,0.6131372432873253,0.1514862793976295,0.26592702558706216,-0.14267561381106902,0.5911155270620957,-0.4119315647237949,-0.5775504892595167,0.023991303156857963,0.32604632947630746,-0.28645568268257166,-0.45495964470491695,0.12642974087176795,-0.31294044057131754,0.1400971131818202,0.14368673249593514,-0.46037653348136487,-0.23459841752775573,-0.018318692327139362,0.2082173088750445,-0.3568565406632053,0.610697864531542,0.12441899234438977,0.1351144149862431,0.12266665216222956,0.48640834406876515,0.5970244400672667,0.3099063948088777,0.1618776371073657,0.020100544343750498,-0.38109302997500616,-0.2971338755848886,0.33709538773092207,-0.027164142960453514,-0.2595449425383794,0.06690555995796933,0.2693293814784847,0.27036057093002025,-0.4890229128458009,0.08280056971780156,-0.23069413454552276,-0.21579781544868515,0.48142953354854523,-0.18943307874961643,0.26840044849941924,0.1448882302512824,-0.285519537395007,-0.05954274023176865,-0.27606257065496104,0.504294338090572,-0.30315789214987865,-0.5552764308718281,0.3774632574349461,-0.2224153898732174,-0.06845651002332803,-0.17673573726633024,0.10349211393259032,-0.26206904913164375,-0.5960892179710049,-0.34881747422712983,0.4469107873248928,0.16933084451286498,-0.394135457945601,-0.053453070302733115,-0.2655966006348289,0.3529489866708476,0.39926803906538644,-0.2039988383077635,-0.187285555248293,0.13491725410492605,0.20008146931893514,-0.16940421420714716,0.1776331460358161,0.34849878760709324,-0.261006126735606,0.29282976016744533,0.2240959541839058,-0.12123095810025993,-0.11738843456994581,0.08970252764629268,-0.47058970373255904,0.061726288634108985,0.5927432916770241,0.26553352587655765,-0.07281220936389825,-0.08980488297311608,0.028548137296935703,-0.31805596119733043,-0.5157147281814151,-0.3787732234680204,-0.23375413951143142,0.21146138474143483,0.2275650378758608,0.17343747339276408,0.30358153430819945,-0.05021122901160329,0.251235877246006,0.35673433610159205,-0.20200204390371101,-0.30388254800659,-0.10006206957754235,-0.15683744039477412,0.3084329631790805,-0.06705685608449108,-0.5042954152720635,0.12693239763741265,-0.220420948908918,-0.5689595912702553,-0.3369651801000763,0.3726739636393425,0.3446131950245837,0.06412358977608965,0.4606976992632371,0.07701640340419612,-0.030325612606722327,0.33054007471421204,-0.5464810729992239,0.030480042732326903,0.014552276867992918,0.027960491534551917,0.2039399621723991,-0.6205182012329946,-0.6390708032014322,-0.06569207559953968,0.10150146528471968,-0.24747271024863943,-0.02777167419770953,-0.5020737367845844,-0.34206639648484266,-0.1898050419090612,-0.22524136402116213,-0.12166858740646101,-0.09466701724257476,0.030618451483281947,-0.0917991569788554,-0.1222389277981936,0.7056510263436778,0.3695902756634001,-0.02765708735535728,0.25672077528503706,0.4760070156446111,-0.28160423105824145,0.2088075113528172,-0.16343446966488864,0.18540604642406947,-0.17879706544942028,-0.24234789598401432,-0.004363898299921136,-0.46126531929853204,-0.03744367322552603,0.10679454773312487,0.4252182275789873,-0.6247852665265626,0.04380624728904913,-0.16561896430245487,-0.44314195141817564,0.20500970986559125,0.5450494839689406,0.11460862918395683,0.08244066294385041,0.11294277399164869,-0.1009561550425138,-0.4163962661386606,0.1568009015709491,0.38399527290243585,-0.08886922368714847,-0.19075920492488005,-0.6481618182884764,0.1693627315468936,-0.4175434115866781,-0.14596674245120667,-0.5376105142475153,-0.6027302227210535,-0.40175322090667487,0.2887392844690761,-0.39493199623465153,-0.28374405408273595,0.4897451590758275,0.1770029018373694,-0.24349144416885862,0.37460944632901894,-0.41341789161768067,0.4355813644735759,0.4954115072316977,0.5605361568714692,-0.3921073578302176,-0.08165655789207366,0.58726522142794,0.198097244125584,0.00951526359185429,-0.26928530737220036,-0.5186760947642209,-0.5461484129955242,-0.3996510051429685,-0.3916478982287461,-0.29015210508245176,-0.2964046755525159,-0.1463684591022688,-0.019790896389901762,0.1739237456015345,-0.2731804310175985,0.09035734097336666,-0.14456020559322535,0.3494259331247411,-0.24994585036734818,0.25721343836638577,0.15900640245814832,0.15162019840009883,0.4273156796322227,0.22249566270280666,-0.3190127409018314,-0.21269063460065832,-0.18068086905475506,0.20153338556163106,-0.44367591913921217,-0.13697838239538343,-0.5534176983275941,-0.6711730115448492,-0.22511505923819763,-0.2512984411189172,0.43137431353093814,0.053872752204607036,0.32068716922146123,0.07006637275507073,-0.4441626228886216,0.35185027503008987,0.13419633530340117,0.10737802621472718,-0.2376545892059713,0.28952526120722544,0.49583532680927017,0.08909129366516358,-0.15392070929744467,-0.6944770531921782,0.5593647873338344,0.3053671166927595,-0.02894403261412577,-0.22930223546288908,0.01261157798180067,0.20647363213705958,-0.43413288804108524,0.004748998233416848,-0.42561338962880463,0.010780083534212509,-0.16148531581446976,0.46484062558843936,-0.08652976217935748,0.275930409656512,-0.16144151029755618,0.09847405472108504,-0.23209351371805706,-0.09856516740164552,0.23466786624706903,-0.33307210350542216,-0.11243685369098187,0.1542835476362745,0.14027788326206503,0.058882900710127584,-0.43901991028820225,0.09206116663842276,0.42729717215178525,0.587158426440864,-0.10265631939516305,0.30608267214557067,-0.3139358078991035,-0.21819763877977277,-0.14631251774922524,0.10743133580529994,-0.4883229351003266,0.31746813505139815,0.3684808862719912,0.18294541980912546,0.04577149543045966,0.07200214565124553,0.21530584276887518,-0.26591078421613606,-0.02180227704417007,-0.08704650923827129,-0.2508936419334821,0.24297905760867322,0.2555543060648139,0.3567827256764704,-0.08850818856642265,-0.11918819012819834,-0.25871822226730834,-0.03638622469544418,-0.29590227101860966,-0.05118630715888023,0.23573016595437274,0.5262613123426871,0.4472962760867358,-0.12365834541714006,0.10070528131501423,0.04435879062464249,0.06983259329763038,-0.43320972041754624,-0.32095396690282463,-0.2587763161985171,0.23077358718641,-0.37113211946357066,0.3728284710484012,0.14849276354034274,-0.012332006590048067,-0.3502452981276689,0.23362516305673234,-0.26299843785820765,0.2827015007878295,-0.3501855907120056,0.317155877195263,0.4609700775547627,-0.16967861784339877,0.4014413838057281,-0.11210805265834767,0.18909014230897978,0.034448588081181376,0.24318876949520277,0.42910476415509463,-0.07134734256095539,-0.26740655679958053,-0.13043704328070885,0.1970902713162772,0.18127514914717083,-0.02956932423012478,-0.41643236039408077,0.2368807020692849,-0.3585300311785895,0.33750219232763645,0.20896533280988389,-0.10942309466757603,-0.04097779426837751,-0.08971273998346777,-0.1174643247016954,-0.08713228565351806,-0.14221647324843562,0.2678867066090139,-0.25310966865360873,0.05874922764954403,-0.4555428451086495,0.3447055461210021,0.4162290860802637,-0.1607679900728872,-0.1500535758058364,-0.2723132433938663,0.06404890692406781,-0.26267188472032477,0.3796894354695033,-0.11280106696310398,0.19052854107473347,0.21547940938082627,0.40443922557871104,-0.4071846562656087,-0.310614145546746,-0.11185246160601452,0.0376677231048544,0.23038043580978215,-0.5169617134248885,-0.10306645615627127,-0.4261675477455878,-0.2543831865200323,0.449943529594305,-0.09814474655583623,0.08486837839457226,0.32704903364618004,-0.4930218881765586,-0.6555840082231237,0.03668890926568358,0.19624502889923587,-0.14002794672254704,0.3005219584470608,-0.42836849685834766,-0.3533800275568475,0.0339004473323037,0.28565981137553376,0.47498630025040345,0.5144565849600344,0.4365246343434596,-0.3844532813606485,-0.3710623330418344,0.29055356775558205,-0.038458747015378804,0.4339779701116092,-0.17613319594879398,-0.2657978257485085,-0.10012397327171373,-0.32492324184639776,-0.42744604372387623,0.26696322340243933,0.0472300187314633,0.24988148781477634,-0.3247228393115965,0.32423353663303756,-0.10964184432976072,-0.44062639480727656,-0.21136298836746828,-0.02220408937152683,-0.31160476082681704,-0.3596042802703883,-0.4637604334995393,0.414960696513042,0.22330121246989748,0.27721335771150235,-0.320130066361512,0.407273835561358,0.43246833730693074,-0.06298971834544874,-0.04947710009926223,0.3505102728373674,-0.33174430780650355,-0.4063263886143353,-0.18149179535204726,0.07200113100804906,-0.28140962650903195,-0.09615647622551246,0.2620141373090354,0.39663832267367427,-0.16077865246817938,-0.37084568971504583,-0.06742761579502922,-0.09820526880260395,-0.19299857651282926,0.14771738319593014,-0.3708720623209233,0.371538803026212,0.3840663149591356,0.044888511866197474,-0.15268803505714498,0.23198190636005403,0.20890319544519564,-0.439626927927412,-0.2502658422354377,-0.31928240742876735,0.22836313281779336,-0.0586262945454665,0.02386276392434056,-0.24267681895576657,0.22032342270326283,-0.4253323871814236,0.21790744249670968,-0.2083954294218163,-0.08179424052580431,-0.23839999052191221,0.4547495058330031,0.33091002890457,-0.27448858668307896,-0.0861592691357975,0.4059351987188005,-0.41383244559985394,-0.3577784540824278,0.25627556306253074,0.2621341492133128,-0.5162684152868945,-0.07462908130091807,-0.2631506319861143,0.31259871939540385,-0.04948290605173488,0.25713288622226443,0.3208176409507985,0.19512595251372203,-0.06391746082227238,-0.28076290632491224,-0.23716898065439934,0.0911413341886388,-0.29121087536471824,0.30700603321376885,-0.1288552280895358,-0.2467078011635546,-0.4262644021933026,-0.39523949575272427,-0.005078515007655305,0.36856985283890586,0.45602962148402904,-0.08392616499213468,0.1517366494456577,0.1432747706785343,0.3448180332519806,-0.49948225515649264,-0.5214698457963745,0.4766865919273283,-0.3118992423409474,-0.20766813312784826,0.22554759873298494,-0.10659991563473191,-0.3464704948823679,-0.3833730412816948,0.23513531446190306,0.031068456729734864,0.5084705828141393,-0.2520316869887132,-0.1372354190087522,0.35854526700107237,-0.24120337656727345,0.19498525760991905,-0.45971670170627493,-0.5297312184883392,-0.4092599176451713,0.33127120886201283,0.38891836788620926,-0.2663325473223774,0.18516731772821515,0.4172819162695753,0.21459186712021766,-0.31148594372683136,-0.025577753938632763,-0.4226525188845746,0.29390287423059774,0.3049316354414703,0.12335729369158191,-0.07389604221558543,0.05705461918077052,0.2821254005897144,-0.2913653051927573,0.020602310557826322,0.023956595868733895,0.16007686831264564,0.01428269616328652,0.3297206037913024,0.42648093441416646,-0.3415310101217161,0.2559600162846844,-0.2704449138755952,0.3388421027431375,-0.23288378072533594,-0.17642168759208388,-0.2915763190118386,0.37035032074016166,0.05136615163925479,0.3832749511597094,0.12530722935425484,0.457096169772063,-0.3098091592662392,-0.3318057312105317,0.1672001018212228,-0.2745233583760205,0.2742543615051904,-0.07147176852642262,0.21061312254351175,-0.04289436956387107,0.17748744486176032,-0.4451357712442392,0.2908624123975554,0.47519366259575196,-0.2612775352753011,-0.44885752505609305,-0.011166791307746102,-0.11047021216841352,-0.2693770123308978,-0.1765035869030648,0.25926190461611237,-0.0023833760346690957,-0.13390953445355291,-0.11186691726866163,-0.08593400580702724,-0.46134346187965486,0.03590670316320411,0.17149654714797108,-0.176566492359794,-0.246182803867224,-0.004467501331598706,0.051242059699925825,0.10465196501974819,0.3891299610639232,-0.1748964777620976,0.21411459658161142,0.07093181536259785,-0.4894152068763923,0.106688886773823,0.2709064564543745,0.12494853087305138,0.04007006209435642,0.010991987617344276,-0.46499684475737146,0.34541621087429336,-0.18860316856539946,-0.21055281784267305,-0.07843726705345076,0.450423079117967,0.13860163130188122,-0.14455227218881744,0.13756316783498776,-0.27409767333632357,-0.08387395978662024,-0.3875901827990008,-0.07787161255784972,0.26114384430606796,-0.01439100213015001,0.14343755629063942,-0.4805034483729576,0.10359588767377918,0.4832582053456298,-0.04166672518551948,-0.21463000449663602,0.3134344653167164,0.33291178892088436,0.46527257304493685,-0.13689157552833656,0.30898886591452474,0.33589802127127233,0.14211009845388137,-0.24608770716979805,-0.0682004387722875,0.288814051765059,0.1797809395657181,0.2535753388173884,-0.08938633444805313,-0.28077994827609887,-0.44552292124068704,-0.11503498839001211,-0.16585672194829987,-0.3997131947525928,0.4655842350367321,-0.1258103498030351,-0.43465924539517015,-0.06577550724909986,0.42057965386332075,0.2731813228334457,-0.28657821907844017,-0.01304584945955189,-0.36259898335472895,0.07388795340529129,0.1232058227236506,-0.2531520100471609,0.1344962518361791,-0.3934022745284946,-0.3574341341330512,0.500707745624792,0.16340134709480228,-0.16764162864218224,-0.22931841610112336,-0.4224699422597821,0.0486699178330601,-0.19806725469374412,-0.3613038910693385,0.3215727292265338,-0.43014164062147725,-0.08372227212956446,0.45645559099323035,0.41002755417520326,-0.18498224278226336,0.3114486485908749,-0.48231281951787297,0.4505405887316271,0.26505540144987805,0.049444459189345535,0.4812272445989938,0.39679437931982575,-0.1127082853558745,0.05492562376476988,0.07522277034479273,-0.11472787740458233,0.12982236948801182,-0.4585224991863774,-0.10223868878230706,0.4487664333459971,0.41188499325312594,0.14904563239158516,0.23122796953774793,0.25267422871915435,0.3795622199396483,-0.4576194896230135,0.24952960130831606,0.21836507091028481,0.296185722056943,0.3153327876676963,0.18432889893486576,-0.14862501189006108,-0.10392771790859033,0.11218535347297755,0.22576511747046943,-0.06658293156468663,-0.32962019990806696,0.08238393301481987,0.0420381586948594,0.029681837300301793,-0.14997395795878765,-0.07494330835473137,-0.19321012394124504,-0.21256910363389517,-0.34178265697672844,-0.19028653800367903,-0.08936636194871152,-0.07342535582062203,0.28903360342844747,-0.37742293645795105,-0.44378975497877127,0.005869786064081382,-0.06801205456714117,0.154583169731769,-0.08237717462899813,-0.07232916403456187,-0.08100627099007769,0.5005045211325143,-0.38971306972178343,0.3979231835277713,-0.3625492552008437,0.036904150162116255,0.3864084740554664,0.14463462219912557,-0.2977347593858841,0.4854145884975005,0.46033490036078767,0.4053037688728863,0.09958356203418801,-0.172022304726608,0.3591435225561696,0.38378853245916494,0.02802237655284593,-0.0216954308514385,0.4616442170334276,-0.4642729847045816,-0.31866139806547417,-0.10665254221500374,-0.2407865903174324,-0.03273143190880478,0.02513155740086274,-0.3953911857709211,-0.4342266008955804,0.47387355299154255,0.43040832724217126,-0.4527781027768847,0.45090404583472693,-0.4687342652263966,0.09130171998964767,-0.15175943242888096,-0.3040858083066792,-0.344272033785789,-0.2510771354110759,0.3658015358808366,0.2515128951134737,0.20979513143985198,-0.20181635059158454,0.005144549152735437,0.08792107666203698,0.024216997777866855,-0.36617830850819433,-0.19664667080536508,-0.4835339235912844,0.30661064207565725,-0.4079274805447689,-0.38954129757985245,-0.4798354521392051,-0.18369495796028856,0.45680440330329475,-0.34211242415014437,0.2609939198063654,0.3989295856720269,-0.362060799468816,0.43181728225606203,-0.4884194087661875,0.12600934587971208,0.436702840113379,-0.4446516057182547,0.2478587620131689,-0.38152147928426405,0.4330172590336633,0.1803984353358187,0.27614100998748325,-0.337496551068643,-0.36306455821784844,-0.27063372264467095,-0.002012579287504271,-0.4514268518213192,0.04765419692154094,-0.16639170218086832,0.3281690643979135,-0.3838975099506186,0.4899779342445447,0.10198907784126611,0.004742470950375301,-0.44017398688460474,0.42209778126028696,-0.4420402072896102,0.030928659852351357,-0.4357473099134427,-0.0701319283625601,-0.41712059610994034,0.3818579469011655,-0.04278107375019459,0.4720083281224687,0.4139161792487395,-0.24154791017549282,0.37338680817102543,0.4590856929808011,-0.190481083906504,0.44816959786498967,-0.3148992618791266,0.37702366943517157,-0.17300793778071077,-0.2801224809509549,0.39268824747693204,0.3435862466290549,0.19728655857758937,-0.42348144961779083,0.17388682175937098,-0.06621331165322357,0.36905579259524224,0.31969174223857544,-0.08226049639194734,0.02866470836208593,0.16265011956182648,-0.22581212099293735,-0.06112759777537305,0.03448292629838419,0.09946932826866142,-0.033330543101950896,0.4877135388038567,0.23644770043693017,0.10351616626858644,-0.005288188160718859,-0.4299943852518115,-0.07543525391123744,0.4287705150757122,-0.4105354030839419,-0.21508640478682575,-0.3786053195805517,0.18326441360907128,0.20941869699155405,0.0903224816129688,0.30704493337567285,0.04778733856107165,-0.30348329013846365,0.3030927470779974,0.21483170298229082,-0.4501523745905969,0.017403360350347875,0.25400607665838987,0.4714658681375935,-0.4738973328790761,-0.48529967493265735,-0.3135952675999721,-0.17944531815054326,0.4859246181372907,0.19666884949989938,-0.13535156542977395,0.026529626971183995,0.1104102958918193,0.39312525401584764,0.42453095563294124,-0.2167781449207611,0.05445406443851432,0.3592824586585777,0.19007045321030566,0.08275759338855299,0.14057338458769383,0.03908735591014087,-0.2089292169767369,-0.4745307075574693,0.45600700421677387,0.3270146442300169,-0.13013904769080076,-0.258367967468308,0.3361908188990006,0.13943826953986252,-0.16193000480192113,-0.304901786924459,0.3887491227441716,-0.09126885592963344,0.3028875996623513,0.34292635313209474,0.2570563142210927,-0.3299863070581797,0.0010419985466030757,-0.4988110370334389,0.07666432562602477,0.3421756499842107,0.47690489878248327,0.3522398853651685,0.4453586834712568,0.15524934433918153,-0.3947886993844948,-0.1339369124098888,0.3841846258503372,-0.10291774366731615,-0.24039093497928668,-0.3624420623922642,0.006249139622615927,0.07460106376350081,0.49110808420343455,-0.08367123022555581,0.18145277282494765,-0.3407481646347611,-0.09725378691659606,-0.2707929286932185,0.36765554695519204,0.1350341110115357,-0.08296026426565899,0.08951985109012593,-0.015867120055053356,-0.07413371080466187,0.2780562636783306,-0.07399199772590632,-0.4662051246498155,0.3581908920304168,-0.06804388008530525,-0.44573733320919073,0.12439969966697995,-0.4759470852219727,0.4710600759570404,-0.3591454575141379,-0.1490509660439008,0.19194183021587188,0.36027754449598715,0.22482905271697814,0.3742305924539806,0.024551690845969122,0.15083920607856374,-0.13228453062299936,-0.11676257190767345,-0.04661494395915595,0.20161576758984964,0.37820503013812756,0.31171112901101844,0.08361659642835192,0.4035742356694857,-0.46818038642939436,-0.1869021831839431,0.2786589095822995,-0.09841999081307928,-0.044241726417028206,0.3527835197456526,-0.33061053152306213,0.13417437342197014,0.1897997214749212,0.14704512731536892,-0.48702628288777566,0.15022137479762057,0.3904492599568524,-0.10308505575745444,-0.21278606253858193,-0.47956225630401533,-0.03325117777654809,0.25975709624105753,0.5003891538033101,-0.0628287677168782,0.005077251747742256,0.11590299593395655,-0.24736032919864104,-0.3251445227224102,0.30944353210416864,0.3661024711410006,0.48447723056225844,-0.29183930565550775,-0.1962463860979042,-0.49862001182866184,-0.2987999472821798,-0.16629366320977507,0.5069935092395812,0.48928986755595705,0.44470026556288456,0.08106307015729383,-0.060742482331484604,-0.46955063117306706,-0.3433982378098308,0.4540697300939397,0.18977180853496278,-0.30537657668105395,0.2720940317455069,0.02068767764326901,0.2732169627751197,0.10034094556609145,0.48638850194243965,-0.019278970341633755,-0.19056411511908858,0.03599107817914113,-0.10186701963434878,0.35477455283211007,0.025103851568432152,0.01797875521924145,0.12674130817505744,-0.35374090653646045,-0.1282357720350823,-0.23851943831452105,0.3656426677449025,-0.3776444752903199,0.49375277540750545,0.3217898158476385,0.13135035435801448,0.47905678383804845,-0.1545542738428341,-0.10817707727247136,-0.23551463264247027,0.19909750634285242,-0.29974368202093826,0.006271148625837135,0.29231072519456874,-0.037235777787401544,0.20162177098375658,-0.1383302247388445,-0.19544014236844057,-0.10445795375233051,-0.44827115996521505,0.13263377427786538,0.46166362678242867,0.08647419882009173,-0.29415328937413837,-0.1257899977963251,0.2792810787673957,0.4383691363044134,-0.44625931091653415,0.27685729351633676,0.4839730045717551,-0.08287778701201014,-0.32214837904097093,-0.1503248452175723,0.1797504756810574,-0.3464678139107187,-0.4277460895880985,0.22128747933924484,0.1996156185161828,-0.3040185871328094,-0.3708834650463041,0.1648268372593842,0.11234350397665376,0.10620204807624473,-0.4299017064696381,0.3641688899073901,-0.2640210548024506,-0.013652253312055771,0.298714743145386,-0.4896700435573775,0.15529225337717648,-0.15596162174618985,-0.07587803927544079,0.06425146775544113,-0.35545029987789795,0.2413697237490793,0.1024068340896522,-0.18436303532742132,0.42369542748351663,0.32371130516074603,0.16390662916518825,-0.041623093802859314,-0.21971643928580536,-0.011009722986115777,-0.39069156084214707,-0.275062644313402,0.003241040708879468,-0.18332200667863977,0.42061904652417864,-0.09484240380190338,0.16940189105613454,-0.07830424547242189,-0.4435047854411026,-0.10474462363238891,-0.39923264207906145,-0.2678795618080821,-0.16487349217496433,0.15304813889776483,0.06720992139048478,0.0474072802851626,0.21030662070192202,-0.13046225808737166,0.468509383167202,-0.3352461182800163,0.050965539890574174,0.4125635360261348,-0.1917284089756536,-0.26358114822359235,-0.18195264476322684,-0.16264201428383926,0.06923078285143745,-0.10791800771598922,0.09256562409391261,0.21025220735532307,0.34625467082868006,-0.43100699820545557,0.37283074725027415,-0.4195891840917762,0.36920233522428625,-0.4500951824849807,-0.06930900414676737,0.13724373537260298,0.03369145903997014,0.20853886538633376,0.11341667769528767,-0.03909762327477826,0.0959969743842971,-0.27421920909443076,-0.044474418225865314,0.2217242091961539,-0.2634563515767375,0.1266300380420544,0.3050823442554404,0.4331426768736254,-0.24135586252322908,0.37469341216716795,0.13398088205934666,0.23866891397486487,0.37490965335729165,0.12243802894830015,0.032524978927342,-0.35031241746240255,0.19777666368957006,0.00020561520399248884,0.282208373349028,-0.23169117969351785,0.34178350058730256,0.44072402165939406,0.3571574962702278,0.22048302185878257,0.13846380003265385,-0.3835530682604005,-0.2764879090865321,-0.3723064903813937,-0.5951527825214885,0.3513269229117134,-0.31561717837135433,0.27586287741113746,0.019393722843276347,0.21586653941577158,-0.3321571843651454,-0.047724638246353125,-0.4963441379643055,0.24282569010962665,-0.47412475440469515,0.0749674886537632,0.23998465126818558,0.446057831978074,0.17809551330284007,-0.17945410342092247,0.05351794848796426,0.028438836883866694,-0.4664686050298535,-0.08692872713785613,0.18852359369530822,0.4890279487064917,0.20615499203823556,0.4906717542353412,0.07899018271136245,-0.035626923015883494,0.29398762486409585,-0.38494291099736805,-0.5559553174228886,0.27523510718063854,-0.22628316281322503,0.3661712688606469,-0.30868238461460723,0.36190786665174557,-0.41556023588993146,0.23505943354446415,-0.01565369693247412,-0.5349674252577582,0.1345606921734652,-0.1489094345368893,0.196805650995563,-0.07674744904983449,-0.2653839672395947,0.0859781210730435,-0.4633366633346789,-0.0949583080691898,0.14653888105792817,-0.2872421282409496,0.3167250024035051,0.42735164985982277,-0.4648446343978888,0.1814867075605402,-0.19760317756286397,0.07122851347704365,-0.005039973900469005,0.3000005904654137,-0.3072356806156939,-0.2683446312786941,-0.48410908208849857,-0.3609851866213841,-0.07435968661556618,0.35822896826430756,0.1174297426907972,0.4907693209879648,0.43393391950231186,0.09194687352505763,-0.425274805239182,0.4233900538213357,-0.2061968126009513,0.2931846637620555,0.0220633583353361,-0.40611441800261705,-0.07728473361086599,-0.15832860867738693,0.0673115425275054,-0.434571743695112,0.26460537224566955,0.33533218777422175,0.3670392374084106,0.34379732657214634,-0.11039736466595096,-0.024286272582373786,-0.554515220469913,0.08058079895946826,0.313425360346821,0.21380418347869684,0.44264644529881714,-0.046133289488673575,0.48164721181213765,0.15131885994285188,0.3857255659450303,-0.07982320125975625,-0.4726017980544576,0.23589575094564116,0.44073900095194596,-0.4661598736963105,-0.28027309961785357,-0.08853643134381464,0.142984138578108,0.1450733781105077,-0.012113576666671212,0.35913551149295203,-0.3789215736492066,-0.36979384233487944,-0.15167194982849413,0.4573963975319109,-0.2834078674969283,-0.17682979897035914,-0.28483238215684253,0.386240785661815,-0.44803693291132274,-0.47280155439579513,-0.06665126686854389,-0.5240350928279756,0.180520237373139,0.3175068377491158,0.11292655903618977,0.06171096236258071,-0.30653900570056103,0.3867765004975347,-0.5215865549047274,-0.4910617330300229,-0.4035484372954703,-0.0343911122057532,0.27907029127713107,0.06814853095594217,0.021401271587591513,-0.35921086774426786,-0.13595360771541962,0.13432270520146275,0.22175008604617413,-0.0354529248314658,0.42317690557281523,0.1381022945639313,-0.10422771778581871,-0.034687614221580954,-0.32276263139486205,0.009035077760896702,0.4599023789027777,0.40659503172184025,0.18027485016442313,0.20772281428409417,-0.06508292808702842,-0.1761702899729087,0.46351145316737036,-0.5486258691495779,-0.493103365343479,0.10764213229188928,0.29627315856171893,0.3516741921428587,-0.33735626583670625,-0.3107682188628147,-0.07705234032828978,0.4316476294855284,-0.18002972542612533,-0.35871067112337934,0.13179603603009235,0.02053743099059638,-0.32405732398702525,-0.17459330900652392,-0.521072757932057,0.08935431443709974,0.31214986955775037,0.5494768201372635,0.3349353078830521,-0.5238266650359206,0.21218236129054652,0.2003164147292773,-0.34541496269388844,0.2647117776428569,-0.28766248438914094,-0.39799987183633445,0.294822364283837,0.1969673187774272,-0.5307677125556713,-0.4099221864663795,0.084528975887596,0.007728047947084173,-0.04415825493221445,-0.3299212207608588,-0.02576444092052103,0.048295534539321616,0.2191209641311944,-0.3101963942798135,0.1799310298061582,0.8956368033989284,-0.23019166262273386,-0.17805285283511074,-0.370896117260436,0.008183373910011293,0.12624223345681096,-0.0872399403830983,0.15422871553017747,-0.1346071576912911,-0.1644783974375461,0.25535911852384463,0.44540031497136057,0.26951532237453557,-0.09255596168942945,-0.42153424696355907,-0.4415194209236031,-0.27307887638218115,-0.26184498544207974,0.13851297821959652,-0.2410959042428265,0.42683002075140847,0.31519206287457047,-0.41309154328996905,-0.03858844490294003,-0.07257008685305444,0.05191493871463855,-0.41484965800486684,0.3450982233452571,0.2241381179772534,0.17022960376252214,0.08912479245251521,0.2997256125241801,-0.7760528344967899,0.36624372355318946,0.5310158837392511,0.25742256064467,-0.7110042092323988,-0.23897887001680337,0.16347759076365825,-0.363204681403718,-0.0828549274223413,0.0736394801336042,-0.2829565344039039,-0.026662638912650128,-0.05997944989937369,-0.14129121293786107,0.18705028350239428,0.03343651601860363,0.0035360169365160686,0.10593942061660046,-0.16028339073973655,-0.16054056189772353,-0.5422462587116998,-0.3473646187682836,0.17719955550359232,0.26764166764090686,-0.018890598921888362,0.24521807919479027,-0.2600567719431418,-0.23562592700857882,-0.23936710474457504,0.013209200128575318,0.7868672265412227,-0.06458458768002716,0.12539308184450876,0.383202026889172,0.26734686341939445,-0.044489312550427,-0.2739619529361319,0.5424615468949991,0.02688893672052091,0.19183426143749094,-0.2137221325049482,0.07745377572641411,0.10141477598942135,-0.4744610983292866,-0.05894291176881729,-0.23923495860782523,-0.37345126441480436,0.2292932401473893,-0.21679251840112299,0.020057333544375278,0.2555749910819455,0.03315101660880159,0.16969503931566493,0.536855095602677,-0.17644306117368974,0.3004356826574239,-0.5751930079321923,0.5940677955912197,-0.1944975657369554,-0.11766672544863142,0.3936476756652703,0.06644218967048196,0.3526214716433323,0.15683931415458455,-0.3016374494346772,-0.37061065857865594,0.09167650097560731,-0.5736171693723422,-0.8237939815636076,-0.6205420051394116,-0.49354374007132823,0.5393036335286998,0.04907958506282933,-0.40923160167541517,0.3431227343866301,0.440103880026949,-0.5448503693124942,0.41656841272516654,0.7528440958794699,0.15746071218086827,0.19937567319661187,-1.0399704814144741,-0.3416745569337588,-0.6625200798266547,0.3099010569384198,0.3975392817830275,-0.030441105944590995,-0.26896983244053074,-0.45320973864983155,-0.02558285422685232,-0.038769933980263856,-0.5569560956669718,-0.44897990286180034,-0.05523740908899718,-0.13277523065282346,-0.15089841760354217,0.6479535143244329,0.4125305663013727,0.08656126279697793,-0.16780798024169197,0.18666994706988763,0.39481403417863814,-0.1465076121591407,-0.34975864484427566,-0.6586607244298607,-0.08585338064431161,-0.2248447737070757,-0.3856996035198876,0.7584861831479381,0.39971501199166826,-0.43398594336896523,-0.5152862149848032,-0.7514077754818106,-0.2265297766960339,0.20767474318670198,-0.5325060598356002,0.35109244550405355,0.2467461696072798,0.20341992667266742,0.07604743530821284,-0.17451059134635238,0.2652172365355225,-0.2482219341134099,0.5389365514906084,1.0617895671794788,0.6553074387437091,0.31717215348341615,0.3986363273607143,0.46824001389794545,-0.43066402528051156,-0.2829817058175085,-0.02939777277255316,-0.3166380528593362,-0.08947549540835112,0.10058344872126844,-0.3363544140857629,-0.1948480863564078,-0.07863691741608445,-0.584197105069418,0.2655131614734176,0.19584360597562217,-0.3533089550533548,-0.2837028137972404,-0.14655790039131628,0.11353247698078722,-0.44771555079187564,-0.2794956880858612,-0.03182894782177015,-0.021865937011952614,-0.14438271177870626,-0.8373795420868417,-0.4516118089985387,0.10745757068943794,-0.5067450162192227,0.0795398187332289,0.1422923654480908,0.267688058400399,-0.004227721845945178,-0.12091721302993735,-0.3215671422537413,0.1446314611470425,-0.07593316292130121,-0.009092122843532505,0.22514702734066785,-0.6457007254562064,0.019246470374952224,0.08042469546044206,0.4204562606674622,-0.6032841441663965,0.19078614085095433,0.4123607297464366,-0.3104431129095345,0.5929596770194271,-0.4876497404607329,0.33099580063085826,0.4992852279818411,0.08780961489878752,-0.42262904167253323,0.0819870453827924,0.17281829763100365,0.007578610993350905,1.177544673437941,0.4680004173221406,0.6738210707962692,0.094826909972151,-0.2470363434879883,-0.45498801019769847,-0.05097612202071168,0.019209673846832365,0.254890674190203,-0.06286310409429688,-0.4424328230113744,0.07147366423017282,-0.9873321232845272,0.3270936009546803,-0.5794368310238709,-0.27123373046823396,-0.6940933524928188,-0.5394115975285892,-0.306666722033059,0.23865825479364108,0.3383750550876084,0.22116684707689285,0.12121228191857278,0.2916297699395676,0.31982875523737586,0.12015593870953795,-0.07451630279677439,-0.20712642270506373,-1.1813478161926358,0.18075886299056787,0.4363948874058524,-0.01634746045196979,-0.6687337581083026,0.16364134236702185,-0.02452682161697092,-0.8041340044135419,0.44877704193753176,-0.596137967813777,-0.6704086626431032,-0.12882390412060973,-0.00036160163912837275,-0.1357012454431224,-1.0668015395805412,0.9657006133368626,0.2830173324725798,0.010624139398451813,0.5051555262804374,0.5611689353648732,0.07107221438423755,-0.226686715707595,-0.18008018766929423,-0.010644623897338555,-0.41251949810413724,0.816021920742985,-0.027972604243100416,0.08798019729447372,0.41292164686633903,0.07839684291592385,0.35006899595797625,-0.7230680985867112,-0.26399983720524284,0.5845234055420369,-0.5632165349821534,0.1500850977714594,-0.7169196749345741,0.1844286314919915,-0.14862794415268613,0.29716262728833387,1.0121205291517814,0.023168782801062663,1.1973977884988636,0.9251350601306597,0.1657399504751258,0.01612779221726622,0.019165585247202594,0.7983052704677005,-0.34168061201579136,0.05553790980020327,-0.16544453826165217,-1.3279783156361116,0.6809058627972063,0.25724027239604597,-0.7698774383900977,0.29436402313287946,0.3849110301538908,0.27522614110589594,0.28112293259508914,-0.19175926886954056,0.37885461615871735,-0.5408317221423057,-0.5924138458488774,0.3807936405511915,-0.12508664231437464,-0.0696510396101172,1.011234592948418,0.137471862684008,-0.08627516698348539,-0.9544289791999739,-0.10666221573727985,-0.48859563733932543,-0.4945294339219808,0.9582045849564229,-0.35202435436272583,0.29017173317563927,-0.37918745932394404,-0.12046207733384227,-0.5147733845686439,-0.13356835379338156,-0.5710674040074655,0.5682912458450814,0.24656328513435738,-0.5615086729391465,-0.688823056942439,0.14288265685979934,0.8545097309091348,-0.43120423441512973,0.21920276641456402,0.1980054509464728,-0.07441245124946334,-0.50561152372141,0.09243225332403994,0.21820936455882858,-0.26298088083831056,0.5967558768713092,-1.4426860990556665,-0.2425411541640405,-0.13664911009626823,-0.4710673070563727,1.705785736141895,-0.31196614017709623,0.2993700019522516,-0.18832002974648276,0.3329490015201064,0.27833306134449115,0.12134190733764444,1.1770435525991771,0.003083787043115981,-0.09303458651984087,0.31673753294895324,0.21063986019751807,-0.8418458348842952,0.1959475490936176,-0.2585419379358174,-0.705289766761157,-0.4690526246940556,0.07759494612264341,-0.4666696537151082,0.1840087796264422,-0.12333866501508485,-0.055548299465586086,0.2644966548584281,0.735759436289487,-0.5184174056809442,0.6822774098830101,-0.47440672984569876,-0.3267381838291579,-0.8076642998084831,0.7926869420407117,0.5078806802245317,-0.19772527637918422,-0.6986327191138854,-0.20680443998656037,-0.9470716529434335,0.016330845239839815,-0.11045520366024505,-1.4018535545304338,-1.123657684464703,-1.5042579267168263,0.37667397178739814,0.2556817163224026,-0.12832420893035998,0.36169955444118307,0.011299028821798646,-0.3406482640484236,-0.19351046268929054,0.18027829274115822,-0.3896567575330911,0.3613072659395867,-0.09523239995072441,0.6441432726671903,-0.04762969736240299,-0.15619334192621426,-0.16124170017181802,0.05101165769730482,0.37583580863720384,-0.4173774037148859,-0.8605865932005826,-1.252722218871185,0.39259869348026244,0.22651550748927587,-0.3665730048683805,0.04660451620581728,0.42538741822897796,-0.43911407984555073,0.0025093572659835805,0.9095987474161307,0.25293167844902614,0.43426634606737896,-0.13952670109689247,-0.09509152988589502,0.15058888304710136,-0.2860000009054655,0.426028792580771,0.27313461808475425,-0.47885248475673203,0.536453599225793,0.14764359420502968,-0.8389798476775882,-0.48185627793838653,-0.11913708871948438,-0.3185638916817506,0.09583556312971496,-0.09520895022488589,-0.46684981397445785,0.4769234144709791,-0.4373272697009342,0.12731665225876437,-0.28575297718712633,0.0008292590022056892,0.7018050147524807,0.5341946348641038,0.05464622730014267,0.9102907719748459,0.1260299891038901,-0.05143838395979525,-0.22332873736916847,-0.32025839487061225,0.372138035025554,0.014070576761218393,-0.5948553838612717,-0.6934679661794665,0.1589813447470774,-0.10140699942205626,-0.850509879975532,-0.9997816090731618,-0.23379969016301316,0.618511091186123,-1.0521576613455665,0.7866918199248711,-0.6237057414672885,-0.10050210887346861,-0.13481979997556245,1.1146888985505286,0.4331606882218833,0.6365571996863366,-0.012468671163191477,-0.16983135158713733,0.3826236179162714,-0.4388484114445266,-0.20730366985387064,0.5877611924513688,0.19885363884261503,-0.14128952866306646,-0.5112353846248162,0.2999539861696744,0.08011257929913336,0.2918064051623906,-0.7356167094547423,-0.5721773242701348,0.19256963802113714,-0.09470782033301008,0.4285891230215673,-0.6271290707509944,0.2052246937989793,-1.4059250127519478,0.3621985585517231,0.12065589200921208,0.5139696703742007,0.01865641396021444,-0.046798196294618934,-0.566326137186356,-0.13154649685565015,0.780347629873866,-0.5985994695904919,0.08716514862590743,0.48522480569290444,-0.09120879099714008,0.23801536695911854,0.2076343435083902,0.8497160350362918,-0.3127232083346294,0.3786116836241289,-1.419045384808856,0.5473680694215538,-1.8303080215247716,0.7234153341838824,1.1426324423844358,-0.18099672201965458,0.4224849410234163,0.16267524036703307,-0.03829654105280652,0.757041242205121,0.009436929720502097,-0.6054352786388283,-0.7407005331690689,0.5539019945664175,-0.8998411699053481,0.5485686486708417,1.620215229615054,1.1092118082451732,0.6026303920674491,-0.14274393933248009,-0.4794303442467017,0.6284230115796874,-0.1261444418458215,-0.5905967250453126,-0.2984270314554036,0.2871984742838867,0.401536147185523,0.2790853992297297,-0.0870310039731518,-0.3490037608542546,0.8541608365171081,-0.2203062933506113,-0.6611272120342916,-0.38410081361668835,-0.37621971972157103,0.08969674171557408,-0.7385175263095993,-1.0821451133886635,0.24529516730973658,-0.11887965016264403,-0.6705998208736013,0.6107422050859652,0.047783023862241335,0.11798468332353282,0.7161490241426157,-0.300948648526247,-0.46284480687183066,0.31634705865735274,0.7928460937386789,0.32641552536262175,-0.24675976268164504,-0.44283106739955963,-1.0282192620547808,-0.7488549372767608,0.6318685603219439,-0.18514712289336777,0.011807602524965011,0.26202940196400243,-0.886317417085492,-0.5179294652335806,-0.6792718024603219,-0.5975363245190779,0.21387967842175507,-0.00843714265516731,0.13777937018974212,0.6497204312093166,0.07401252148993871,0.3494074518063802,-0.08746995647448577,0.15016136657581658,0.13262673445938586,0.12300701230041695,-0.07359785846050118,-0.8702176518790584,0.037038506908642264,0.029068383071126868,-0.3144997709870905,0.4744195684787496,-0.09303213664483206,-0.5916067055314947,-0.6959522834353082,-0.16666388116018668,-0.08108897612880119,-0.4882434155032178,0.3990564076304224,-0.39269901301956156,-2.280450479834825,0.28742844264788725,0.2291384113474538,0.3059857110613003,-0.16137925226048055,0.007144411145977031,0.5730458114125593,-0.20552040319187964,-0.36956619028988075,0.6886539266726032,0.7738682301056001,-1.7463532625676466,-0.9211792480380849,-0.8482214734341573,-0.510186992169873,0.3612063235461659,0.2911287006565302,-1.1661611419106765,-1.452772261934901,-0.43868283162101757,0.031491195769860314,-0.14356697309169802,-0.027673352945758862,-0.15799416211066114,-0.23760337141646432,0.9924372962431638,-0.48586275513078053,0.7188940393352053,-0.3824005668153273,0.716436246544099,-0.59808624817958,-0.9782241638910608,0.7306708080056502,-0.5505582614916361,0.39487166103948224,0.3098171242285567,-0.60267589907507,-0.6361824231270887,0.38109063516904873,0.272778198169743,0.44447421029323464,0.7976176736092485,0.6939862531890364,-0.03381952715307816,-0.07335865725244214,-0.03928768276348352,-1.3841070603764452,0.5214521854801886,2.0755092302795033,-0.0047724159102212815,0.4890055208454128,0.5097853124816544,-0.5674962679523554,1.0709328966807437,0.7481020216055125,0.4436940369468745,-0.6474507685807301,1.4203568759633776,-0.16804359183701664,0.5512761155364693,-1.086655443425344,0.6226747100657998,-0.34576388027352956,-0.15425148174341832,-0.1507675477398043,-0.4581651893423913,-0.29134786650857236,-0.899093879869779,-0.3599406429933814,0.10603645252173434,-1.6971440468597567,-2.2248713562765365,0.43743621697903784,-0.1405631886940155,-1.0255479860725407,1.1311659505362415,0.07021258814107664,0.0829744863834078,1.0387091399486963,-1.4648591930305666,0.6891178793230123,-0.21820390851677668,0.4127666474183263,0.5243002399950619,-0.07021068532209718,-1.3251303438365598,-0.07332505721813791,-1.3238226043144627,0.29165713414259226,-0.10589546175166864,1.4341230376572511,1.455870590220338,-1.2515559918160866,-0.3993240991314365,-1.190759761270943,0.27659734754496906,0.7842007510334674,-0.26536260694173924,-0.3639105041011452,0.05858553010679582,-0.1253740725919077,0.6398128783904669,-0.7084990640949304,-0.0749994542307258,1.2541578412326342,-0.36308174617583866,-0.2824705487705777,-0.20093135256117295,1.0104295915603867,0.4840796844724084,-0.7749608063637885,-0.5301025439790841,-0.409699887268703,0.6302400998357083,0.2793080546765005,-0.21462188085753947,0.11176333362823361,0.22485080346204855,0.828606250821538,-0.8780388444664852,0.2045228333027544,-1.4276397456629681,0.3151774134107372,0.1312792212925328,0.029793199184143165,-1.5844131089066937,0.7680192887502423,1.101163638294784,-1.6569968264883352,-0.13387899910649856,-0.319967037012203,-1.1359533291845023,0.054899126412819244,-0.02317229479235284,-0.03508216201614508,0.37506246192540976,0.1955779106128389,0.5962089493809226,0.5469791303832596,0.811099058834926,-0.6108265148102924,0.24006498296679846,0.5313184236937827,-0.14028798775895224,-0.8952115090615796,-2.3310960916738535,-1.46015762636235,1.1820601111949924,-0.3620874610716803,-1.1389446515396304,0.18551979900760437,-1.0301783143918974,-0.2517594783026202,1.1508554104019848,0.19054586799002818,0.18863726882135146,-0.5102090028860496,1.2067499978440004,-0.3316777604091701,-0.22672954911143833,0.6307454172835953,-0.5046342026631144,-0.4709134465735928,-0.4163721853236459,0.0657615854863482,0.9600488454948221,0.2117436512305212,0.28219387967061743,0.9311289412541426,1.288305409312097,0.8282011651140508,0.28329215455180745,0.13090212910909094,1.230462185353434,-0.2102849245744986,-0.40544488787696903,2.09333348912446,0.4508655813971703,-0.5886332787279875,1.1365007124433513,0.01789989635002024,1.366477206536155,0.5283487106373188,0.8501292719009557,-0.7057950177683479,0.8873297565313318,1.0406198991557098,-0.3792696961543004,-0.3691876922900853,0.9649820295624142,-0.5941124327471231,0.8542929833632389,-0.8050055360552406,-0.30698532278275026,-0.6636312657277514,-0.19502835983918732,-0.9795135957912234,-0.9392796077518033,-0.8653061525761849,-1.4754932508366603,0.7021030149124964,-0.02462792507732413,-1.1292642335855059,0.14684280788715562,0.22212217822059047,0.24135572546383113,0.913230425719929,-0.8377721336165246,-0.4843167454324164,0.20526910582283014,0.9311799806618234,0.06367739086847458,0.4496594385558969,-0.4749077720451601,0.31259320184149714,-1.402653586900667,0.4509593793591287,-0.6057751650586778,0.18036359439502064,0.3465682176001107,-1.3843419755829538,-0.26195987302450724,-0.5729534283151347,1.0755304471861933,-0.6698087850234407,-0.17752341309476935,0.2808639025953615,-0.0912824190062411,0.5835542236971547,0.26753506326618676,0.02752304501768856,0.1547739431096517,0.3706352683829057,-0.291112285986303,-0.8962989242564412,-0.2694704363097552,1.039079530798602,-0.18537940234995057,-1.145006297391165,0.25339571278292633,0.30315242393222563,0.14556775201416336,-0.14128279365412352,-1.0060133899958037,-0.28361112948423445,0.2077324139662117,-0.11778886205421868,-0.027642117855583417,-0.03815135516113474,-2.1763475101413396,1.0430473476080726,-0.4336963268375734,-0.19468353404015304,-2.2268875820031986,1.3461984983261037,0.9234869552673162,-0.7093399586856961,-0.6708957540070426,-0.011424031397549883,-0.9171787420465666,0.5992225952031501,-0.12422744747643838,-0.1366449074947137,-0.44469327626234745,-0.06158532587748699,0.44805222254859167,0.5781648951285282,0.003449406107601434,1.0802545515443607,1.1355287910298117,-0.9344401941036318,-0.05229105257380627,-0.22962927962238763,-3.677430599774696,-0.9748022857847783,0.34975138468607375,-0.4593850513147681,-1.5399120348723512,-0.8617508620053456,-1.3376392365888896,-0.12389707313993788,1.3592570953436105,-0.1300591954802391,0.07533774561535497,0.4934643462626236,0.6127091066147224,-0.3715504033702597,-0.5000829738098626,0.7534361414486087,-0.30354734216370516,0.03579735444018665,-0.33475947024667524,0.3253628954955566,0.06533340352328634,0.5735581831368675,-1.5204376753884674,0.1963106759991222,